{"learner":{"attributes":{},"feature_names":["family_history","Days_Indoors","Growing_Stress"],"feature_types":["int","int","int"],"gradient_booster":{"model":{"gbtree_model_param":{"num_parallel_tree":"1","num_trees":"50"},"iteration_indptr":[0,1,2,3,4,5,6,7,8,9,10,11,12,13,14,15,16,17,18,19,20,21,22,23,24,25,26,27,28,29,30,31,32,33,34,35,36,37,38,39,40,41,42,43,44,45,46,47,48,49,50],"tree_info":[0,0,0,0,0,0,0,0,0,0,0,0,0,0,0,0,0,0,0,0,0,0,0,0,0,0,0,0,0,0,0,0,0,0,0,0,0,0,0,0,0,0,0,0,0,0,0,0,0,0],"trees":[{"base_weights":[4.5972353E-8,-5.9381145E-1,9.0686333E-1,-6.041345E-1,-5.7335836E-1,8.981612E-1,9.2306775E-1,-6.4114743E-1,-5.938006E-1,-5.838449E-1,-5.658332E-1,2.5542417E-1,2.730095E-1,2.8591117E-1,9.137127E-1,-1.977394E-1,-1.8665275E-1,-5.759034E-1,-5.990152E-1,-1.6966443E-1,-1.8132327E-1,-1.665488E-1,-1.7154792E-1,2.640043E-1,2.7715012E-1,-1.8032487E-1,-1.6501138E-1,-1.81956E-1,-1.7454997E-1],"categories":[],"categories_nodes":[],"categories_segments":[],"categories_sizes":[],"default_left":[0,0,0,0,0,0,0,0,0,0,0,0,0,0,0,0,0,0,0,0,0,0,0,0,0,0,0,0,0],"id":0,"left_children":[1,3,5,7,9,11,13,15,17,19,21,-1,-1,-1,23,-1,-1,25,27,-1,-1,-1,-1,-1,-1,-1,-1,-1,-1],"loss_changes":[2.7551125E4,6.1816406E0,2.0253906E0,7.470215E0,4.8950195E-1,6.5546875E0,1.1020508E0,1.114502E0,1.1542969E0,1.2797852E0,7.165527E-2,0E0,0E0,0E0,1.0239258E0,0E0,0E0,2.0465088E0,1.2480469E0,0E0,0E0,0E0,0E0,0E0,0E0,0E0,0E0,0E0,0E0],"parents":[2147483647,0,0,1,1,2,2,3,3,4,4,5,5,6,6,7,7,8,8,9,9,10,10,14,14,17,17,18,18],"right_children":[2,4,6,8,10,12,14,16,18,20,22,-1,-1,-1,24,-1,-1,26,28,-1,-1,-1,-1,-1,-1,-1,-1,-1,-1],"split_conditions":[1E0,2E0,2E0,1E0,2E0,1E0,1E0,1E0,2E0,1E0,3E0,2.5542417E-1,2.730095E-1,2.8591117E-1,2E0,-1.977394E-1,-1.8665275E-1,1E0,4E0,-1.6966443E-1,-1.8132327E-1,-1.665488E-1,-1.7154792E-1,2.640043E-1,2.7715012E-1,-1.8032487E-1,-1.6501138E-1,-1.81956E-1,-1.7454997E-1],"split_indices":[0,2,2,1,1,1,1,2,1,1,1,0,0,0,1,0,0,2,1,0,0,0,0,0,0,0,0,0,0],"split_type":[0,0,0,0,0,0,0,0,0,0,0,0,0,0,0,0,0,0,0,0,0,0,0,0,0,0,0,0,0],"sum_hessian":[5.1160168E4,3.0916486E4,2.0243682E4,2.0527412E4,1.0389073E4,1.320739E4,7.0362915E3,4.466959E3,1.6060454E4,4.308469E3,6.080604E3,2.6893247E3,1.0518064E4,1.6498925E3,5.386399E3,2.2758518E3,2.1911072E3,3.6487622E3,1.2411691E4,2.2951006E3,2.0133688E3,2.2206052E3,3.8599985E3,1.2644176E3,4.1219814E3,1.8376302E3,1.811132E3,8.614688E3,3.7970027E3],"tree_param":{"num_deleted":"0","num_feature":"3","num_nodes":"29","size_leaf_vector":"1"}},{"base_weights":[5.6733884E-4,-4.18784E-1,6.501123E-1,-4.2618036E-1,-4.041408E-1,6.435737E-1,6.6230327E-1,-4.5280033E-1,-4.187574E-1,-4.1166314E-1,-3.9874583E-1,6.087683E-1,6.524348E-1,2.0546676E-1,6.5526855E-1,-1.3972512E-1,-1.3174641E-1,-4.059946E-1,-4.224782E-1,-1.1956801E-1,-1.279221E-1,-1.1734157E-1,-1.20906256E-1,1.7766437E-1,1.8755394E-1,1.9958659E-1,1.944979E-1,1.890517E-1,6.6282314E-1,-1.2720835E-1,-1.1624829E-1,-4.2785177E-1,-4.101837E-1,2.0144476E-1,1.9366767E-1,-1.2654921E-1,-1.3011459E-1,-1.2504429E-1,-1.20035365E-1],"categories":[],"categories_nodes":[],"categories_segments":[],"categories_sizes":[],"default_left":[0,0,0,0,0,0,0,0,0,0,0,0,0,0,0,0,0,0,0,0,0,0,0,0,0,0,0,0,0,0,0,0,0,0,0,0,0,0,0],"id":1,"left_children":[1,3,5,7,9,11,13,15,17,19,21,23,25,-1,27,-1,-1,29,31,-1,-1,-1,-1,-1,-1,-1,-1,-1,33,-1,-1,35,37,-1,-1,-1,-1,-1,-1],"loss_changes":[1.3768739E4,3.1542969E0,1.1542969E0,3.8393555E0,2.548828E-1,3.5952148E0,6.459961E-1,5.788574E-1,5.8618164E-1,6.5740967E-1,3.9001465E-2,3.4729004E-1,1.1230469E-1,0E0,5.822754E-1,0E0,0E0,1.0459595E0,6.394043E-1,0E0,0E0,0E0,0E0,0E0,0E0,0E0,0E0,0E0,1.697998E-1,0E0,0E0,1.19018555E-1,8.514404E-2,0E0,0E0,0E0,0E0,0E0,0E0],"parents":[2147483647,0,0,1,1,2,2,3,3,4,4,5,5,6,6,7,7,8,8,9,9,10,10,11,11,12,12,14,14,17,17,18,18,28,28,31,31,32,32],"right_children":[2,4,6,8,10,12,14,16,18,20,22,24,26,-1,28,-1,-1,30,32,-1,-1,-1,-1,-1,-1,-1,-1,-1,34,-1,-1,36,38,-1,-1,-1,-1,-1,-1],"split_conditions":[1E0,2E0,2E0,1E0,2E0,1E0,1E0,1E0,2E0,1E0,3E0,1E0,2E0,2.0546676E-1,2E0,-1.3972512E-1,-1.3174641E-1,1E0,4E0,-1.1956801E-1,-1.279221E-1,-1.1734157E-1,-1.20906256E-1,1.7766437E-1,1.8755394E-1,1.9958659E-1,1.944979E-1,1.890517E-1,4E0,-1.2720835E-1,-1.1624829E-1,1E0,1E0,2.0144476E-1,1.9366767E-1,-1.2654921E-1,-1.3011459E-1,-1.2504429E-1,-1.20035365E-1],"split_indices":[0,2,2,1,1,1,1,2,1,1,1,2,1,0,1,0,0,2,1,0,0,0,0,0,0,0,0,0,1,0,0,2,2,0,0,0,0,0,0],"split_type":[0,0,0,0,0,0,0,0,0,0,0,0,0,0,0,0,0,0,0,0,0,0,0,0,0,0,0,0,0,0,0,0,0,0,0,0,0,0,0],"sum_hessian":[5.0546348E4,3.0716129E4,1.9830219E4,2.0389246E4,1.0326882E4,1.2942425E4,6.8877944E3,4.4327393E3,1.5956507E4,4.281607E3,6.045275E3,2.6405156E3,1.0301909E4,1.6129294E3,5.2748647E3,2.257339E3,2.1754004E3,3.6266733E3,1.2329834E4,2.281779E3,1.999828E3,2.208238E3,3.837037E3,1.3330211E3,1.3074946E3,2.4562983E3,7.845611E3,1.2400104E3,4.0348545E3,1.8254214E3,1.8012521E3,8.556305E3,3.7735288E3,2.6618442E3,1.3730105E3,4.2574204E3,4.298885E3,2.2506023E3,1.5229266E3],"tree_param":{"num_deleted":"0","num_feature":"3","num_nodes":"39","size_leaf_vector":"1"}},{"base_weights":[1.2286595E-3,-2.9816967E-1,4.7578883E-1,-3.0362087E-1,-2.8739452E-1,4.7058898E-1,4.8550683E-1,-3.233248E-1,-2.981402E-1,-2.929316E-1,-2.8342783E-1,4.432672E-1,4.775791E-1,1.5107225E-1,4.799025E-1,-9.988568E-2,-9.396111E-2,-2.8878167E-1,-3.0087197E-1,-8.49911E-2,-9.113652E-2,-8.406749E-2,-8.683841E-2,1.2919472E-1,1.3674285E-1,1.4626683E-1,4.7439522E-1,1.3802272E-1,4.8589727E-1,-9.061188E-2,-8.256495E-2,-3.0482236E-1,-2.918461E-1,4.7055516E-1,4.8268232E-1,1.4777623E-1,1.4177673E-1,-9.013181E-2,-9.272802E-2,-8.8995285E-2,-8.536736E-2,1.4458084E-1,1.3767615E-1,1.3891579E-1,1.5310356E-1],"categories":[],"categories_nodes":[],"categories_segments":[],"categories_sizes":[],"default_left":[0,0,0,0,0,0,0,0,0,0,0,0,0,0,0,0,0,0,0,0,0,0,0,0,0,0,0,0,0,0,0,0,0,0,0,0,0,0,0,0,0,0,0,0,0],"id":2,"left_children":[1,3,5,7,9,11,13,15,17,19,21,23,25,-1,27,-1,-1,29,31,-1,-1,-1,-1,-1,-1,-1,33,-1,35,-1,-1,37,39,41,43,-1,-1,-1,-1,-1,-1,-1,-1,-1,-1],"loss_changes":[7.018306E3,1.6918945E0,7.373047E-1,2.0736084E0,1.4086914E-1,2.1716309E0,4.2944336E-1,3.206787E-1,3.154297E-1,3.555298E-1,3.4240723E-2,2.083435E-1,8.3984375E-2,0E0,3.803711E-1,0E0,0E0,5.6073E-1,3.4448242E-1,0E0,0E0,0E0,0E0,0E0,0E0,0E0,1.3549805E-2,0E0,1.1291504E-1,0E0,0E0,6.500244E-2,4.5959473E-2,4.6826172E-1,1.0426636E0,0E0,0E0,0E0,0E0,0E0,0E0,0E0,0E0,0E0,0E0],"parents":[2147483647,0,0,1,1,2,2,3,3,4,4,5,5,6,6,7,7,8,8,9,9,10,10,11,11,12,12,14,14,17,17,18,18,26,26,28,28,31,31,32,32,33,33,34,34],"right_children":[2,4,6,8,10,12,14,16,18,20,22,24,26,-1,28,-1,-1,30,32,-1,-1,-1,-1,-1,-1,-1,34,-1,36,-1,-1,38,40,42,44,-1,-1,-1,-1,-1,-1,-1,-1,-1,-1],"split_conditions":[1E0,2E0,2E0,1E0,2E0,1E0,1E0,1E0,2E0,1E0,4E0,1E0,2E0,1.5107225E-1,2E0,-9.988568E-2,-9.396111E-2,1E0,4E0,-8.49911E-2,-9.113652E-2,-8.406749E-2,-8.683841E-2,1.2919472E-1,1.3674285E-1,1.4626683E-1,4E0,1.3802272E-1,4E0,-9.061188E-2,-8.256495E-2,1E0,1E0,1E0,1E0,1.4777623E-1,1.4177673E-1,-9.013181E-2,-9.272802E-2,-8.8995285E-2,-8.536736E-2,1.4458084E-1,1.3767615E-1,1.3891579E-1,1.5310356E-1],"split_indices":[0,2,2,1,1,1,1,2,1,1,1,2,1,0,1,0,0,2,1,0,0,0,0,0,0,0,1,0,1,0,0,2,2,2,2,0,0,0,0,0,0,0,0,0,0],"split_type":[0,0,0,0,0,0,0,0,0,0,0,0,0,0,0,0,0,0,0,0,0,0,0,0,0,0,0,0,0,0,0,0,0,0,0,0,0,0,0,0,0,0,0,0,0],"sum_hessian":[4.939399E4,3.028663E4,1.9107357E4,2.0093861E4,1.019277E4,1.2479407E4,6.6279497E3,4.3602046E3,1.5733657E4,4.223851E3,5.9689185E3,2.5554507E3,9.923956E3,1.5481489E3,5.079801E3,2.218249E3,2.1419553E3,3.5790786E3,1.2154578E4,2.2529834E3,1.9708679E3,3.9300815E3,2.0388369E3,1.2914878E3,1.2639628E3,2.3639968E3,7.5599595E3,1.1973815E3,3.8824194E3,1.7992859E3,1.7797928E3,8.431539E3,3.723039E3,5.2055967E3,2.3543623E3,2.5596494E3,1.3227701E3,4.1964375E3,4.235102E3,2.2198628E3,1.5031763E3,2.6110562E3,2.5945408E3,1.3875143E3,9.668481E2],"tree_param":{"num_deleted":"0","num_feature":"3","num_nodes":"45","size_leaf_vector":"1"}},{"base_weights":[1.5309169E-3,-2.1249594E-1,3.489554E-1,-2.1652089E-1,-2.0455317E-1,3.4482077E-1,3.5670218E-1,-2.3113431E-1,-2.1246688E-1,-2.086358E-1,-2.0163186E-1,3.2327852E-1,3.5036135E-1,1.1136149E-1,3.5222316E-1,-7.149216E-2,-6.708358E-2,-2.0559198E-1,-2.144763E-1,-6.046482E-2,-6.4993426E-2,-5.9065074E-2,-6.129448E-2,9.40664E-2,9.989304E-2,1.07450314E-1,3.478752E-1,1.0095315E-1,3.5699624E-1,-6.460694E-2,-5.8688674E-2,-2.1738593E-1,-2.0783788E-1,3.448942E-1,3.5431835E-1,1.0867168E-1,1.0397966E-1,-6.425264E-2,-6.615512E-2,-6.340216E-2,-6.075925E-2,1.0610111E-1,1.0078282E-1,1.0174846E-1,1.1273256E-1],"categories":[],"categories_nodes":[],"categories_segments":[],"categories_sizes":[],"default_left":[0,0,0,0,0,0,0,0,0,0,0,0,0,0,0,0,0,0,0,0,0,0,0,0,0,0,0,0,0,0,0,0,0,0,0,0,0,0,0,0,0,0,0,0,0],"id":3,"left_children":[1,3,5,7,9,11,13,15,17,19,21,23,25,-1,27,-1,-1,29,31,-1,-1,-1,-1,-1,-1,-1,33,-1,35,-1,-1,37,39,41,43,-1,-1,-1,-1,-1,-1,-1,-1,-1,-1],"loss_changes":[3.586245E3,9.0979004E-1,4.6557617E-1,1.123291E0,7.785034E-2,1.3210449E0,2.8289795E-1,1.7800903E-1,1.7016602E-1,1.9273376E-1,3.4820557E-2,1.2863159E-1,6.0791016E-2,0E0,2.4627686E-1,0E0,0E0,3.013916E-1,1.8609619E-1,0E0,0E0,0E0,0E0,0E0,0E0,0E0,1.751709E-2,0E0,7.785034E-2,0E0,0E0,3.6254883E-2,2.545166E-2,2.7490234E-1,6.0910034E-1,0E0,0E0,0E0,0E0,0E0,0E0,0E0,0E0,0E0,0E0],"parents":[2147483647,0,0,1,1,2,2,3,3,4,4,5,5,6,6,7,7,8,8,9,9,10,10,11,11,12,12,14,14,17,17,18,18,26,26,28,28,31,31,32,32,33,33,34,34],"right_children":[2,4,6,8,10,12,14,16,18,20,22,24,26,-1,28,-1,-1,30,32,-1,-1,-1,-1,-1,-1,-1,34,-1,36,-1,-1,38,40,42,44,-1,-1,-1,-1,-1,-1,-1,-1,-1,-1],"split_conditions":[1E0,2E0,2E0,1E0,2E0,1E0,1E0,1E0,2E0,1E0,3E0,1E0,2E0,1.1136149E-1,2E0,-7.149216E-2,-6.708358E-2,1E0,4E0,-6.046482E-2,-6.4993426E-2,-5.9065074E-2,-6.129448E-2,9.40664E-2,9.989304E-2,1.07450314E-1,4E0,1.0095315E-1,4E0,-6.460694E-2,-5.8688674E-2,1E0,1E0,1E0,1E0,1.0867168E-1,1.0397966E-1,-6.425264E-2,-6.615512E-2,-6.340216E-2,-6.075925E-2,1.0610111E-1,1.0078282E-1,1.0174846E-1,1.1273256E-1],"split_indices":[0,2,2,1,1,1,1,2,1,1,1,2,1,0,1,0,0,2,1,0,0,0,0,0,0,0,1,0,1,0,0,2,2,2,2,0,0,0,0,0,0,0,0,0,0],"split_type":[0,0,0,0,0,0,0,0,0,0,0,0,0,0,0,0,0,0,0,0,0,0,0,0,0,0,0,0,0,0,0,0,0,0,0,0,0,0,0,0,0,0,0,0,0],"sum_hessian":[4.8227336E4,2.9843178E4,1.8384158E4,1.9788977E4,1.0054202E4,1.2016317E4,6.3678413E3,4.2854146E3,1.5503562E4,4.1641934E3,5.890009E3,2.4704243E3,9.545894E3,1.4832615E3,4.8845796E3,2.177963E3,2.1074517E3,3.5299019E3,1.1973659E4,2.2232197E3,1.9409736E3,2.1534263E3,3.7365825E3,1.2502268E3,1.2201976E3,2.2712412E3,7.274652E3,1.1547444E3,3.7298354E3,1.7723043E3,1.7575975E3,8.302778E3,3.6708809E3,5.010857E3,2.263795E3,2.4570693E3,1.272766E3,4.133707E3,4.1690713E3,2.187992E3,1.482889E3,2.5107598E3,2.5000972E3,1.336508E3,9.27287E2],"tree_param":{"num_deleted":"0","num_feature":"3","num_nodes":"45","size_leaf_vector":"1"}},{"base_weights":[1.5239887E-3,-1.5110609E-1,2.5462434E-1,-1.5405682E-1,-1.4529167E-1,2.5138924E-1,2.6069978E-1,-1.6481216E-1,-1.5108007E-1,-1.4828146E-1,-1.4315452E-1,2.3466212E-1,2.5571227E-1,8.164371E-2,2.5717893E-1,-5.103362E-2,-4.777977E-2,-1.4606367E-1,-1.5254797E-1,-4.293017E-2,-4.6244513E-2,-4.2356234E-2,-4.4063326E-2,6.817083E-2,7.262788E-2,7.852769E-2,2.5379035E-1,7.3477075E-2,2.6091757E-1,-4.5961976E-2,-4.1637994E-2,-1.5467587E-1,-1.4769922E-1,2.5148752E-1,2.5877622E-1,7.9495326E-2,7.586277E-2,-4.5499407E-2,-4.7275137E-2,-4.507261E-2,-4.315515E-2,7.746591E-2,7.3391244E-2,7.413927E-2,8.260263E-2],"categories":[],"categories_nodes":[],"categories_segments":[],"categories_sizes":[],"default_left":[0,0,0,0,0,0,0,0,0,0,0,0,0,0,0,0,0,0,0,0,0,0,0,0,0,0,0,0,0,0,0,0,0,0,0,0,0,0,0,0,0,0,0,0,0],"id":4,"left_children":[1,3,5,7,9,11,13,15,17,19,21,23,25,-1,27,-1,-1,29,31,-1,-1,-1,-1,-1,-1,-1,33,-1,35,-1,-1,37,39,41,43,-1,-1,-1,-1,-1,-1,-1,-1,-1,-1],"loss_changes":[1.8245071E3,4.831543E-1,2.836914E-1,6.0025024E-1,4.2266846E-2,7.803955E-1,1.7770386E-1,9.700012E-2,9.04541E-2,1.0297394E-1,2.1903992E-2,7.73468E-2,4.0771484E-2,0E0,1.5231323E-1,0E0,0E0,1.5989685E-1,9.9121094E-2,0E0,0E0,0E0,0E0,0E0,0E0,0E0,1.5625E-2,0E0,5.0735474E-2,0E0,0E0,4.7821045E-2,1.3877869E-2,1.6033936E-1,3.538971E-1,0E0,0E0,0E0,0E0,0E0,0E0,0E0,0E0,0E0,0E0],"parents":[2147483647,0,0,1,1,2,2,3,3,4,4,5,5,6,6,7,7,8,8,9,9,10,10,11,11,12,12,14,14,17,17,18,18,26,26,28,28,31,31,32,32,33,33,34,34],"right_children":[2,4,6,8,10,12,14,16,18,20,22,24,26,-1,28,-1,-1,30,32,-1,-1,-1,-1,-1,-1,-1,34,-1,36,-1,-1,38,40,42,44,-1,-1,-1,-1,-1,-1,-1,-1,-1,-1],"split_conditions":[1E0,2E0,2E0,1E0,2E0,1E0,1E0,1E0,2E0,1E0,4E0,1E0,2E0,8.164371E-2,2E0,-5.103362E-2,-4.777977E-2,1E0,4E0,-4.293017E-2,-4.6244513E-2,-4.2356234E-2,-4.4063326E-2,6.817083E-2,7.262788E-2,7.852769E-2,4E0,7.3477075E-2,4E0,-4.5961976E-2,-4.1637994E-2,3E0,1E0,1E0,1E0,7.9495326E-2,7.586277E-2,-4.5499407E-2,-4.7275137E-2,-4.507261E-2,-4.315515E-2,7.746591E-2,7.3391244E-2,7.413927E-2,8.260263E-2],"split_indices":[0,2,2,1,1,1,1,2,1,1,1,2,1,0,1,0,0,2,1,0,0,0,0,0,0,0,1,0,1,0,0,1,2,2,2,0,0,0,0,0,0,0,0,0,0],"split_type":[0,0,0,0,0,0,0,0,0,0,0,0,0,0,0,0,0,0,0,0,0,0,0,0,0,0,0,0,0,0,0,0,0,0,0,0,0,0,0,0,0,0,0,0,0],"sum_hessian":[4.7227434E4,2.9461389E4,1.7766045E4,1.9526494E4,9.9348955E3,1.1620606E4,6.1454385E3,4.221023E3,1.5305471E4,4.11283E3,5.8220654E3,2.3978567E3,9.22275E3,1.4277352E3,4.717703E3,2.1432769E3,2.0777463E3,3.4875596E3,1.1817911E4,2.197594E3,1.9152365E3,3.834914E3,1.9871515E3,1.2151107E3,1.182746E3,2.1918115E3,7.030938E3,1.118327E3,3.5993762E3,1.749074E3,1.7384856E3,8.191938E3,3.6259731E3,4.844738E3,2.1862002E3,2.3692527E3,1.2301235E3,4.0506135E3,4.141324E3,2.1605115E3,1.4654618E3,2.42489E3,2.419848E3,1.2931029E3,8.9309735E2],"tree_param":{"num_deleted":"0","num_feature":"3","num_nodes":"45","size_leaf_vector":"1"}},{"base_weights":[1.3453494E-3,-1.0712535E-1,1.8442309E-1,-1.0926845E-1,-1.0290737E-1,1.8194464E-1,1.890867E-1,-1.1710573E-1,-1.07103474E-1,-1.05077714E-1,-1.0135725E-1,1.6921422E-1,1.8524824E-1,5.9375975E-2,1.8637869E-1,-3.6293894E-2,-3.3917636E-2,-1.0347533E-1,-1.0816612E-1,-3.0396802E-2,-3.2801036E-2,-2.9533004E-2,-3.0903371E-2,4.9088765E-2,5.2445605E-2,5.695491E-2,1.8378815E-1,5.3105254E-2,1.8924457E-1,-3.2596234E-2,-2.9464377E-2,-1.09707735E-1,-1.04656845E-1,1.7986068E-1,1.8573648E-1,5.770286E-2,5.4940082E-2,-3.217858E-2,-3.36323E-2,-3.194697E-2,-3.0565444E-2,6.1710894E-2,4.695405E-2,5.249151E-2,5.975287E-2],"categories":[],"categories_nodes":[],"categories_segments":[],"categories_sizes":[],"default_left":[0,0,0,0,0,0,0,0,0,0,0,0,0,0,0,0,0,0,0,0,0,0,0,0,0,0,0,0,0,0,0,0,0,0,0,0,0,0,0,0,0,0,0,0,0],"id":5,"left_children":[1,3,5,7,9,11,13,15,17,19,21,23,25,-1,27,-1,-1,29,31,-1,-1,-1,-1,-1,-1,-1,33,-1,35,-1,-1,37,39,41,43,-1,-1,-1,-1,-1,-1,-1,-1,-1,-1],"loss_changes":[9.221507E2,2.5231934E-1,1.6534424E-1,3.1526184E-1,2.2453308E-2,4.4421387E-1,1.05911255E-1,5.171585E-2,4.7195435E-2,5.406189E-2,1.7662048E-2,4.4685364E-2,2.5360107E-2,0E0,8.955383E-2,0E0,0E0,8.346176E-2,5.180359E-2,0E0,0E0,0E0,0E0,0E0,0E0,0E0,1.8951416E-2,0E0,3.0975342E-2,0E0,0E0,3.555298E-2,7.4005127E-3,1.3549957E0,6.2202454E-1,0E0,0E0,0E0,0E0,0E0,0E0,0E0,0E0,0E0,0E0],"parents":[2147483647,0,0,1,1,2,2,3,3,4,4,5,5,6,6,7,7,8,8,9,9,10,10,11,11,12,12,14,14,17,17,18,18,26,26,28,28,31,31,32,32,33,33,34,34],"right_children":[2,4,6,8,10,12,14,16,18,20,22,24,26,-1,28,-1,-1,30,32,-1,-1,-1,-1,-1,-1,-1,34,-1,36,-1,-1,38,40,42,44,-1,-1,-1,-1,-1,-1,-1,-1,-1,-1],"split_conditions":[1E0,2E0,2E0,1E0,2E0,1E0,1E0,1E0,2E0,1E0,3E0,1E0,2E0,5.9375975E-2,2E0,-3.6293894E-2,-3.3917636E-2,1E0,4E0,-3.0396802E-2,-3.2801036E-2,-2.9533004E-2,-3.0903371E-2,4.9088765E-2,5.2445605E-2,5.695491E-2,3E0,5.3105254E-2,4E0,-3.2596234E-2,-2.9464377E-2,1E0,1E0,1E0,1E0,5.770286E-2,5.4940082E-2,-3.217858E-2,-3.36323E-2,-3.194697E-2,-3.0565444E-2,6.1710894E-2,4.695405E-2,5.249151E-2,5.975287E-2],"split_indices":[0,2,2,1,1,1,1,2,1,1,1,2,1,0,1,0,0,2,1,0,0,0,0,0,0,0,1,0,1,0,0,2,2,2,2,0,0,0,0,0,0,0,0,0,0],"split_type":[0,0,0,0,0,0,0,0,0,0,0,0,0,0,0,0,0,0,0,0,0,0,0,0,0,0,0,0,0,0,0,0,0,0,0,0,0,0,0,0,0,0,0,0,0],"sum_hessian":[4.6433914E4,2.915842E4,1.7275492E4,1.9318184E4,9.840235E3,1.1306636E4,5.968857E3,4.1699004E3,1.5148284E4,4.072071E3,5.7681646E3,2.3403496E3,8.966286E3,1.3836115E3,4.585245E3,2.1157334E3,2.0541667E3,3.4539587E3,1.1694326E4,2.1772617E3,1.8948094E3,2.1104966E3,3.657668E3,1.1873304E3,1.153019E3,2.1286997E3,6.8375864E3,1.089445E3,3.4958003E3,1.7306366E3,1.723322E3,8.103989E3,3.590337E3,2.298172E3,4.539414E3,2.299479E3,1.1963213E3,4.036264E3,4.0677246E3,2.138687E3,1.4516499E3,1.0870918E3,1.2110803E3,2.5283276E3,2.0110864E3],"tree_param":{"num_deleted":"0","num_feature":"3","num_nodes":"45","size_leaf_vector":"1"}},{"base_weights":[1.1039287E-3,-7.572433E-2,1.3259333E-1,-7.726742E-2,-7.269006E-2,1.307335E-1,1.3609834E-1,-8.292486E-2,-7.570693E-2,-7.425257E-2,-7.157479E-2,1.2122666E-1,1.332087E-1,4.283063E-2,1.340589E-1,-2.5718322E-2,-2.400022E-2,-7.3104285E-2,-7.646976E-2,-2.1465939E-2,-2.3195442E-2,-2.1119451E-2,-2.2143114E-2,3.5127502E-2,3.761565E-2,4.099293E-2,1.321204E-1,3.811526E-2,1.3621043E-1,-2.3048485E-2,-2.0798137E-2,-7.757699E-2,-7.395125E-2,1.3046679E-1,1.3572575E-1,4.1558024E-2,3.949535E-2,-2.2601532E-2,-2.3924494E-2,-2.2578945E-2,-2.1590594E-2,4.0206373E-2,3.8058557E-2,3.8841937E-2,4.340603E-2],"categories":[],"categories_nodes":[],"categories_segments":[],"categories_sizes":[],"default_left":[0,0,0,0,0,0,0,0,0,0,0,0,0,0,0,0,0,0,0,0,0,0,0,0,0,0,0,0,0,0,0,0,0,0,0,0,0,0,0,0,0,0,0,0,0],"id":6,"left_children":[1,3,5,7,9,11,13,15,17,19,21,23,25,-1,27,-1,-1,29,31,-1,-1,-1,-1,-1,-1,-1,33,-1,35,-1,-1,37,39,41,43,-1,-1,-1,-1,-1,-1,-1,-1,-1,-1],"loss_changes":[4.6300693E2,1.2983704E-1,9.2437744E-2,1.6288757E-1,1.1707306E-2,2.4430847E-1,6.02417E-2,2.7009964E-2,2.4246216E-2,2.791977E-2,9.868622E-3,2.482605E-2,1.473999E-2,0E0,5.0331116E-2,0E0,0E0,4.291153E-2,2.6618958E-2,0E0,0E0,0E0,0E0,0E0,0E0,0E0,2.218628E-2,0E0,1.7856598E-2,0E0,0E0,3.3065796E-2,3.8528442E-3,4.210663E-2,9.776306E-2,0E0,0E0,0E0,0E0,0E0,0E0,0E0,0E0,0E0,0E0],"parents":[2147483647,0,0,1,1,2,2,3,3,4,4,5,5,6,6,7,7,8,8,9,9,10,10,11,11,12,12,14,14,17,17,18,18,26,26,28,28,31,31,32,32,33,33,34,34],"right_children":[2,4,6,8,10,12,14,16,18,20,22,24,26,-1,28,-1,-1,30,32,-1,-1,-1,-1,-1,-1,-1,34,-1,36,-1,-1,38,40,42,44,-1,-1,-1,-1,-1,-1,-1,-1,-1,-1],"split_conditions":[1E0,2E0,2E0,1E0,2E0,1E0,1E0,1E0,2E0,1E0,4E0,1E0,2E0,4.283063E-2,2E0,-2.5718322E-2,-2.400022E-2,1E0,4E0,-2.1465939E-2,-2.3195442E-2,-2.1119451E-2,-2.2143114E-2,3.5127502E-2,3.761565E-2,4.099293E-2,4E0,3.811526E-2,4E0,-2.3048485E-2,-2.0798137E-2,3E0,1E0,1E0,1E0,4.1558024E-2,3.949535E-2,-2.2601532E-2,-2.3924494E-2,-2.2578945E-2,-2.1590594E-2,4.0206373E-2,3.8058557E-2,3.8841937E-2,4.340603E-2],"split_indices":[0,2,2,1,1,1,1,2,1,1,1,2,1,0,1,0,0,2,1,0,0,0,0,0,0,0,1,0,1,0,0,1,2,2,2,0,0,0,0,0,0,0,0,0,0],"split_type":[0,0,0,0,0,0,0,0,0,0,0,0,0,0,0,0,0,0,0,0,0,0,0,0,0,0,0,0,0,0,0,0,0,0,0,0,0,0,0,0,0,0,0,0,0],"sum_hessian":[4.583074E4,2.8928475E4,1.6902266E4,1.9160068E4,9.768407E3,1.1067803E4,5.8344624E3,4.131082E3,1.5028985E4,4.0411409E3,5.7272666E3,2.2966575E3,8.7711455E3,1.3500024E3,4.48446E3,2.0948154E3,2.0362666E3,3.4284604E3,1.1600525E4,2.1618357E3,1.8793052E3,3.7736333E3,1.9536333E3,1.1662489E3,1.1304086E3,2.0806467E3,6.6904985E3,1.0674856E3,3.416974E3,1.7166426E3,1.7118179E3,8.037231E3,3.563294E3,4.6122617E3,2.0782368E3,2.2463506E3,1.1706235E3,3.9749263E3,4.0623047E3,2.1221182E3,1.4411759E3,2.3041787E3,2.308083E3,1.2332052E3,8.450317E2],"tree_param":{"num_deleted":"0","num_feature":"3","num_nodes":"45","size_leaf_vector":"1"}},{"base_weights":[8.626172E-4,-5.3396616E-2,9.4715744E-2,-5.4499585E-2,-5.1229283E-2,9.3343355E-2,9.730529E-2,-5.8551926E-2,-5.3383067E-2,-5.234664E-2,-5.043213E-2,8.636073E-2,9.516594E-2,3.0674944E-2,9.579669E-2,-1.8168813E-2,-1.6936881E-2,-5.1528845E-2,-5.392682E-2,-1.5125707E-2,-1.6361319E-2,-1.4605521E-2,-1.5428176E-2,2.500221E-2,2.6821058E-2,2.9307365E-2,9.4366565E-2,2.7191885E-2,9.738339E-2,-1.6256498E-2,-1.4650344E-2,-5.471626E-2,-5.21322E-2,9.3149334E-2,9.702332E-2,2.9725956E-2,2.8210891E-2,-1.5869208E-2,-1.6952544E-2,-1.5919674E-2,-1.52167E-2,2.8727233E-2,2.7152358E-2,2.7727684E-2,3.1089425E-2],"categories":[],"categories_nodes":[],"categories_segments":[],"categories_sizes":[],"default_left":[0,0,0,0,0,0,0,0,0,0,0,0,0,0,0,0,0,0,0,0,0,0,0,0,0,0,0,0,0,0,0,0,0,0,0,0,0,0,0,0,0,0,0,0,0],"id":7,"left_children":[1,3,5,7,9,11,13,15,17,19,21,23,25,-1,27,-1,-1,29,31,-1,-1,-1,-1,-1,-1,-1,33,-1,35,-1,-1,37,39,41,43,-1,-1,-1,-1,-1,-1,-1,-1,-1,-1],"loss_changes":[2.3112563E2,6.5956116E-2,4.9987793E-2,8.3042145E-2,6.011963E-3,1.3039398E-1,3.2989502E-2,1.3871193E-2,1.2290955E-2,1.422596E-2,7.40242E-3,1.3364792E-2,8.201599E-3,0E0,2.7267456E-2,0E0,0E0,2.1792412E-2,1.3484955E-2,0E0,0E0,0E0,0E0,0E0,0E0,0E0,1.2252808E-2,0E0,9.836197E-3,0E0,0E0,2.3054123E-2,1.9721985E-3,2.2602081E-2,5.252838E-2,0E0,0E0,0E0,0E0,0E0,0E0,0E0,0E0,0E0,0E0],"parents":[2147483647,0,0,1,1,2,2,3,3,4,4,5,5,6,6,7,7,8,8,9,9,10,10,11,11,12,12,14,14,17,17,18,18,26,26,28,28,31,31,32,32,33,33,34,34],"right_children":[2,4,6,8,10,12,14,16,18,20,22,24,26,-1,28,-1,-1,30,32,-1,-1,-1,-1,-1,-1,-1,34,-1,36,-1,-1,38,40,42,44,-1,-1,-1,-1,-1,-1,-1,-1,-1,-1],"split_conditions":[1E0,2E0,2E0,1E0,2E0,1E0,1E0,1E0,2E0,1E0,3E0,1E0,2E0,3.0674944E-2,2E0,-1.8168813E-2,-1.6936881E-2,1E0,4E0,-1.5125707E-2,-1.6361319E-2,-1.4605521E-2,-1.5428176E-2,2.500221E-2,2.6821058E-2,2.9307365E-2,4E0,2.7191885E-2,4E0,-1.6256498E-2,-1.4650344E-2,1E0,1E0,1E0,1E0,2.9725956E-2,2.8210891E-2,-1.5869208E-2,-1.6952544E-2,-1.5919674E-2,-1.52167E-2,2.8727233E-2,2.7152358E-2,2.7727684E-2,3.1089425E-2],"split_indices":[0,2,2,1,1,1,1,2,1,1,1,2,1,0,1,0,0,2,1,0,0,0,0,0,0,0,1,0,1,0,0,2,2,2,2,0,0,0,0,0,0,0,0,0,0],"split_type":[0,0,0,0,0,0,0,0,0,0,0,0,0,0,0,0,0,0,0,0,0,0,0,0,0,0,0,0,0,0,0,0,0,0,0,0,0,0,0,0,0,0,0,0,0],"sum_hessian":[4.5384402E4,2.8758629E4,1.6625771E4,1.9043268E4,9.715361E3,1.0890913E4,5.7348594E3,4.1023945E3,1.4940872E4,4.0182944E3,5.6970674E3,2.2643235E3,8.62659E3,1.3250768E3,4.4097827E3,2.079354E3,2.0230406E3,3.4096267E3,1.1531245E4,2.1504434E3,1.8678511E3,2.0855442E3,3.6115232E3,1.1506606E3,1.1136628E3,2.0450269E3,6.5815625E3,1.0512249E3,3.3585576E3,1.7063042E3,1.7033226E3,7.9879263E3,3.5433193E3,4.5383257E3,2.0432368E3,2.2069644E3,1.1515933E3,3.979596E3,4.00833E3,2.109876E3,1.4334434E3,2.26585E3,2.2724758E3,1.2137389E3,8.294979E2],"tree_param":{"num_deleted":"0","num_feature":"3","num_nodes":"45","size_leaf_vector":"1"}},{"base_weights":[6.524103E-4,-3.757991E-2,6.730686E-2,-3.8363975E-2,-3.6039993E-2,6.630793E-2,6.919343E-2,-4.1248977E-2,-3.756974E-2,-3.6834784E-2,-3.547317E-2,6.1245523E-2,6.763182E-2,2.1841522E-2,6.809324E-2,-1.280463E-2,-1.1926942E-2,-3.6592007E-2,-3.8514275E-2,-1.0639667E-2,-1.1517667E-2,-3.4785856E-2,-1.1034869E-2,1.7719263E-2,1.9033855E-2,2.0839207E-2,6.705229E-2,1.9304883E-2,6.924691E-2,-3.052131E-2,-4.2105246E-2,-4.3140206E-2,-3.247346E-2,-1.0271349E-2,-1.0635001E-2,6.5012515E-2,6.807132E-2,2.1144692E-2,2.0046556E-2,-1.1443425E-2,-6.9839936E-3,-1.0303088E-2,-1.4471812E-2,-1.4619826E-2,-1.1203226E-2,-8.9924075E-3,-1.0705704E-2,2.4870163E-2,1.4711662E-2,1.8150419E-2,2.3277275E-2],"categories":[],"categories_nodes":[],"categories_segments":[],"categories_sizes":[],"default_left":[0,0,0,0,0,0,0,0,0,0,0,0,0,0,0,0,0,0,0,0,0,0,0,0,0,0,0,0,0,0,0,0,0,0,0,0,0,0,0,0,0,0,0,0,0,0,0,0,0,0,0],"id":8,"left_children":[1,3,5,7,9,11,13,15,17,19,21,23,25,-1,27,-1,-1,29,31,-1,-1,33,-1,-1,-1,-1,35,-1,37,39,41,43,45,-1,-1,47,49,-1,-1,-1,-1,-1,-1,-1,-1,-1,-1,-1,-1,-1,-1],"loss_changes":[1.1483339E2,3.3187866E-2,2.6367188E-2,4.1894913E-2,3.0527115E-3,6.7993164E-2,1.7547607E-2,7.0352554E-3,1.2331009E-2,7.174492E-3,3.829956E-3,7.0152283E-3,4.3945312E-3,0E0,1.43585205E-2,0E0,0E0,2.4406052E-1,2.0953465E-1,0E0,0E0,1.4781952E-4,0E0,0E0,0E0,0E0,9.090424E-3,0E0,5.2280426E-3,1.919117E-1,1.8112135E-1,1.3665009E-1,2.5238514E-2,0E0,0E0,6.2135696E-1,3.0629158E-1,0E0,0E0,0E0,0E0,0E0,0E0,0E0,0E0,0E0,0E0,0E0,0E0,0E0,0E0],"parents":[2147483647,0,0,1,1,2,2,3,3,4,4,5,5,6,6,7,7,8,8,9,9,10,10,11,11,12,12,14,14,17,17,18,18,21,21,26,26,28,28,29,29,30,30,31,31,32,32,35,35,36,36],"right_children":[2,4,6,8,10,12,14,16,18,20,22,24,26,-1,28,-1,-1,30,32,-1,-1,34,-1,-1,-1,-1,36,-1,38,40,42,44,46,-1,-1,48,50,-1,-1,-1,-1,-1,-1,-1,-1,-1,-1,-1,-1,-1,-1],"split_conditions":[1E0,2E0,2E0,1E0,2E0,1E0,1E0,1E0,3E0,1E0,4E0,1E0,2E0,2.1841522E-2,2E0,-1.280463E-2,-1.1926942E-2,1E0,1E0,-1.0639667E-2,-1.1517667E-2,3E0,-1.1034869E-2,1.7719263E-2,1.9033855E-2,2.0839207E-2,3E0,1.9304883E-2,4E0,2E0,2E0,4E0,4E0,-1.0271349E-2,-1.0635001E-2,1E0,1E0,2.1144692E-2,2.0046556E-2,-1.1443425E-2,-6.9839936E-3,-1.0303088E-2,-1.4471812E-2,-1.4619826E-2,-1.1203226E-2,-8.9924075E-3,-1.0705704E-2,2.4870163E-2,1.4711662E-2,1.8150419E-2,2.3277275E-2],"split_indices":[0,2,2,1,1,1,1,2,1,1,1,2,1,0,1,0,0,2,2,0,0,1,0,0,0,0,1,0,1,1,1,1,1,0,0,2,2,0,0,0,0,0,0,0,0,0,0,0,0,0,0],"split_type":[0,0,0,0,0,0,0,0,0,0,0,0,0,0,0,0,0,0,0,0,0,0,0,0,0,0,0,0,0,0,0,0,0,0,0,0,0,0,0,0,0,0,0,0,0,0,0,0,0,0,0],"sum_hessian":[4.5059797E4,2.8635309E4,1.6424488E4,1.8958455E4,9.676854E3,1.0762159E4,5.6623286E3,4.0815596E3,1.48768955E4,4.0017087E3,5.675145E3,2.2408052E3,8.521354E3,1.306916E3,4.3554126E3,2.068123E3,2.0134365E3,7.329504E3,7.547391E3,2.142174E3,1.8595345E3,3.7400264E3,1.9351188E3,1.1393295E3,1.1014756E3,2.0190852E3,6.5022686E3,1.0393916E3,3.316021E3,3.491504E3,3.838E3,4.2707764E3,3.276615E3,2.0779377E3,1.6620886E3,2.187804E3,4.314465E3,2.1782778E3,1.1377432E3,1.6987979E3,1.7927062E3,1.6971565E3,2.1408433E3,2.1697896E3,2.1009866E3,1.8487837E3,1.4278313E3,1.0300812E3,1.1577227E3,2.407439E3,1.9070258E3],"tree_param":{"num_deleted":"0","num_feature":"3","num_nodes":"51","size_leaf_vector":"1"}},{"base_weights":[4.8192564E-4,-2.6411312E-2,4.7638763E-2,-2.6966482E-2,-2.5321351E-2,4.6919998E-2,4.899712E-2,-2.9009204E-2,-2.6404457E-2,-2.588331E-2,-2.4920678E-2,4.3283988E-2,4.7872197E-2,1.5481357E-2,4.820376E-2,-9.007647E-3,-8.385414E-3,-2.5714891E-2,-2.7070722E-2,-7.474377E-3,-8.095718E-3,-2.443564E-2,-7.7535547E-3,1.2516443E-2,1.3458569E-2,4.7422033E-2,4.929878E-2,1.3654325E-2,4.90335E-2,-2.1436583E-2,-2.9603833E-2,-3.0335573E-2,-2.2811146E-2,-7.2143874E-3,-7.4716806E-3,1.475574E-2,4.6617456E-2,1.4387362E-2,1.5362552E-2,1.497606E-2,1.4188313E-2,-8.043285E-3,-4.9013924E-3,-7.236842E-3,-1.01826005E-2,-1.0286617E-2,-7.872836E-3,-6.3156257E-3,-7.5219246E-3,1.421009E-2,1.3755253E-2],"categories":[],"categories_nodes":[],"categories_segments":[],"categories_sizes":[],"default_left":[0,0,0,0,0,0,0,0,0,0,0,0,0,0,0,0,0,0,0,0,0,0,0,0,0,0,0,0,0,0,0,0,0,0,0,0,0,0,0,0,0,0,0,0,0,0,0,0,0,0,0],"id":9,"left_children":[1,3,5,7,9,11,13,15,17,19,21,23,25,-1,27,-1,-1,29,31,-1,-1,33,-1,-1,-1,35,37,-1,39,41,43,45,47,-1,-1,-1,49,-1,-1,-1,-1,-1,-1,-1,-1,-1,-1,-1,-1,-1,-1],"loss_changes":[5.6851353E1,1.6592026E-2,1.3595581E-2,2.0931244E-2,1.5277863E-3,3.4870148E-2,9.119034E-3,3.5338402E-3,6.1178207E-3,3.5891533E-3,1.9068718E-3,3.6139488E-3,3.08609E-3,0E0,7.40242E-3,0E0,0E0,1.2096453E-1,1.0395002E-1,0E0,0E0,8.08239E-5,0E0,0E0,0E0,6.855011E-3,2.667904E-3,0E0,2.7070045E-3,9.502065E-2,9.0150595E-2,6.7968845E-2,1.247859E-2,0E0,0E0,0E0,3.824234E-4,0E0,0E0,0E0,0E0,0E0,0E0,0E0,0E0,0E0,0E0,0E0,0E0,0E0,0E0],"parents":[2147483647,0,0,1,1,2,2,3,3,4,4,5,5,6,6,7,7,8,8,9,9,10,10,11,11,12,12,14,14,17,17,18,18,21,21,25,25,26,26,28,28,29,29,30,30,31,31,32,32,36,36],"right_children":[2,4,6,8,10,12,14,16,18,20,22,24,26,-1,28,-1,-1,30,32,-1,-1,34,-1,-1,-1,36,38,-1,40,42,44,46,48,-1,-1,-1,50,-1,-1,-1,-1,-1,-1,-1,-1,-1,-1,-1,-1,-1,-1],"split_conditions":[1E0,2E0,2E0,1E0,2E0,1E0,1E0,1E0,3E0,1E0,4E0,1E0,4E0,1.5481357E-2,2E0,-9.007647E-3,-8.385414E-3,1E0,1E0,-7.474377E-3,-8.095718E-3,3E0,-7.7535547E-3,1.2516443E-2,1.3458569E-2,2E0,1E0,1.3654325E-2,4E0,2E0,2E0,4E0,4E0,-7.2143874E-3,-7.4716806E-3,1.475574E-2,1E0,1.4387362E-2,1.5362552E-2,1.497606E-2,1.4188313E-2,-8.043285E-3,-4.9013924E-3,-7.236842E-3,-1.01826005E-2,-1.0286617E-2,-7.872836E-3,-6.3156257E-3,-7.5219246E-3,1.421009E-2,1.3755253E-2],"split_indices":[0,2,2,1,1,1,1,2,1,1,1,2,1,0,1,0,0,2,2,0,0,1,0,0,0,1,2,0,1,1,1,1,1,0,0,0,2,0,0,0,0,0,0,0,0,0,0,0,0,0,0],"split_type":[0,0,0,0,0,0,0,0,0,0,0,0,0,0,0,0,0,0,0,0,0,0,0,0,0,0,0,0,0,0,0,0,0,0,0,0,0,0,0,0,0,0,0,0,0,0,0,0,0,0,0],"sum_hessian":[4.482639E4,2.8546783E4,1.62796045E4,1.8897564E4,9.64922E3,1.0669466E4,5.610139E3,4.0666008E3,1.4830963E4,3.9898047E3,5.6594155E3,2.2238972E3,8.445568E3,1.2938422E3,4.316297E3,2.0600588E3,2.0065419E3,7.3075063E3,7.5234565E3,2.13624E3,1.8535647E3,3.7299426E3,1.9294727E3,1.1311866E3,1.0927104E3,6.445807E3,1.9997617E3,1.0308812E3,3.2854158E3,3.4826653E3,3.824841E3,4.2555615E3,3.267895E3,2.0724812E3,1.6574615E3,2.0004186E3,4.4453887E3,1.1901876E3,8.09574E2,2.1576345E3,1.1277812E3,1.6934097E3,1.7892557E3,1.6927316E3,2.1321096E3,2.1609558E3,2.094606E3,1.8440908E3,1.4238042E3,2.2170413E3,2.2283474E3],"tree_param":{"num_deleted":"0","num_feature":"3","num_nodes":"51","size_leaf_vector":"1"}},{"base_weights":[3.50291E-4,-1.854201E-2,3.3615515E-2,-1.8933864E-2,-1.7772894E-2,3.31018E-2,3.458683E-2,-2.037554E-2,-1.8537376E-2,-1.8169088E-2,-1.7490456E-2,3.0510925E-2,3.3780985E-2,1.093617E-2,3.4019213E-2,-6.3280626E-3,-5.8885436E-3,-1.8052071E-2,-1.9006342E-2,-5.2457107E-3,-5.68412E-3,-1.714892E-2,-5.442467E-3,8.819627E-3,9.490454E-3,3.3458687E-2,3.4802783E-2,9.630721E-3,3.46111E-2,-1.5042498E-2,-2.0789538E-2,-2.1305364E-2,-1.6008837E-2,-5.062621E-3,-5.244168E-3,1.0415202E-2,3.288484E-2,1.0152297E-2,1.0852208E-2,1.0572743E-2,1.0012041E-2,-5.6472286E-3,-3.4374527E-3,-5.0785355E-3,-7.154648E-3,-7.227696E-3,-5.5266465E-3,-4.431635E-3,-5.279832E-3,9.685587E-3,1.0032517E-2],"categories":[],"categories_nodes":[],"categories_segments":[],"categories_sizes":[],"default_left":[0,0,0,0,0,0,0,0,0,0,0,0,0,0,0,0,0,0,0,0,0,0,0,0,0,0,0,0,0,0,0,0,0,0,0,0,0,0,0,0,0,0,0,0,0,0,0,0,0,0,0],"id":10,"left_children":[1,3,5,7,9,11,13,15,17,19,21,23,25,-1,27,-1,-1,29,31,-1,-1,33,-1,-1,-1,35,37,-1,39,41,43,45,47,-1,-1,-1,49,-1,-1,-1,-1,-1,-1,-1,-1,-1,-1,-1,-1,-1,-1],"loss_changes":[2.8068127E1,8.2473755E-3,6.9293976E-3,1.0400295E-2,7.6007843E-4,1.762867E-2,4.6668053E-3,1.7620325E-3,3.0255318E-3,1.7859936E-3,9.4521046E-4,1.8358231E-3,1.5993118E-3,0E0,3.7550926E-3,0E0,0E0,5.976987E-2,5.139494E-2,0E0,0E0,4.2796135E-5,0E0,0E0,0E0,3.4856796E-3,1.3968945E-3,0E0,1.3747215E-3,4.6918392E-2,4.467678E-2,3.3671856E-2,6.158173E-3,0E0,0E0,0E0,3.95298E-4,0E0,0E0,0E0,0E0,0E0,0E0,0E0,0E0,0E0,0E0,0E0,0E0,0E0,0E0],"parents":[2147483647,0,0,1,1,2,2,3,3,4,4,5,5,6,6,7,7,8,8,9,9,10,10,11,11,12,12,14,14,17,17,18,18,21,21,25,25,26,26,28,28,29,29,30,30,31,31,32,32,36,36],"right_children":[2,4,6,8,10,12,14,16,18,20,22,24,26,-1,28,-1,-1,30,32,-1,-1,34,-1,-1,-1,36,38,-1,40,42,44,46,48,-1,-1,-1,50,-1,-1,-1,-1,-1,-1,-1,-1,-1,-1,-1,-1,-1,-1],"split_conditions":[1E0,2E0,2E0,1E0,2E0,1E0,1E0,1E0,3E0,1E0,4E0,1E0,4E0,1.093617E-2,2E0,-6.3280626E-3,-5.8885436E-3,1E0,1E0,-5.2457107E-3,-5.68412E-3,3E0,-5.442467E-3,8.819627E-3,9.490454E-3,2E0,1E0,9.630721E-3,4E0,2E0,2E0,4E0,4E0,-5.062621E-3,-5.244168E-3,1.0415202E-2,3E0,1.0152297E-2,1.0852208E-2,1.0572743E-2,1.0012041E-2,-5.6472286E-3,-3.4374527E-3,-5.0785355E-3,-7.154648E-3,-7.227696E-3,-5.5266465E-3,-4.431635E-3,-5.279832E-3,9.685587E-3,1.0032517E-2],"split_indices":[0,2,2,1,1,1,1,2,1,1,1,2,1,0,1,0,0,2,2,0,0,1,0,0,0,1,2,0,1,1,1,1,1,0,0,0,1,0,0,0,0,0,0,0,0,0,0,0,0,0,0],"split_type":[0,0,0,0,0,0,0,0,0,0,0,0,0,0,0,0,0,0,0,0,0,0,0,0,0,0,0,0,0,0,0,0,0,0,0,0,0,0,0,0,0,0,0,0,0,0,0,0,0,0,0],"sum_hessian":[4.466E4,2.8483705E4,1.6176295E4,1.8854166E4,9.62954E3,1.0603399E4,5.5728945E3,4.055944E3,1.4798222E4,3.9813262E3,5.6482134E3,2.2118384E3,8.391562E3,1.2845094E3,4.2883853E3,2.0543135E3,2.0016305E3,7.291829E3,7.5063926E3,2.1320137E3,1.8493124E3,3.722763E3,1.9254504E3,1.1253811E3,1.0864573E3,6.405013E3,1.9865482E3,1.0248098E3,3.2635754E3,3.4763855E3,3.8154436E3,4.2446953E3,3.2616973E3,2.0685964E3,1.6541665E3,1.987097E3,4.417916E3,1.1826881E3,8.038601E2,2.1429016E3,1.1206738E3,1.6895714E3,1.7868141E3,1.6895802E3,2.1258635E3,2.1546348E3,2.0900608E3,1.8407611E3,1.4209362E3,2.1558516E3,2.2620645E3],"tree_param":{"num_deleted":"0","num_feature":"3","num_nodes":"51","size_leaf_vector":"1"}},{"base_weights":[2.5195102E-4,-1.3007218E-2,2.3667902E-2,-1.3283178E-2,-1.2465677E-2,2.3302857E-2,2.4358364E-2,-1.4298248E-2,-1.3004097E-2,-1.2744371E-2,-1.2267028E-2,2.1466745E-2,2.378453E-2,7.706032E-3,2.3954755E-2,-4.441262E-3,-4.1315863E-3,-1.266307E-2,-1.3333672E-2,-3.6790026E-3,-3.987636E-3,-1.202696E-2,-3.817424E-3,6.2036105E-3,6.6790567E-3,2.3554929E-2,2.4512678E-2,6.778809E-3,2.4374563E-2,-1.0548934E-2,-1.4586967E-2,-1.4949872E-2,-1.122744E-2,-3.5503113E-3,-3.6781544E-3,7.3345182E-3,2.3147738E-2,7.1481084E-3,7.6472973E-3,7.4465154E-3,7.0495196E-3,-3.961811E-3,-2.4096225E-3,-3.561555E-3,-5.0219754E-3,-5.0732265E-3,-3.8767136E-3,-3.1076525E-3,-3.7034263E-3,7.1038827E-3,6.7824954E-3],"categories":[],"categories_nodes":[],"categories_segments":[],"categories_sizes":[],"default_left":[0,0,0,0,0,0,0,0,0,0,0,0,0,0,0,0,0,0,0,0,0,0,0,0,0,0,0,0,0,0,0,0,0,0,0,0,0,0,0,0,0,0,0,0,0,0,0,0,0,0,0],"id":11,"left_children":[1,3,5,7,9,11,13,15,17,19,21,23,25,-1,27,-1,-1,29,31,-1,-1,33,-1,-1,-1,35,37,-1,39,41,43,45,47,-1,-1,-1,49,-1,-1,-1,-1,-1,-1,-1,-1,-1,-1,-1,-1,-1,-1],"loss_changes":[1.38298435E1,4.084587E-3,3.4914017E-3,5.146742E-3,3.758669E-4,8.826733E-3,2.3589134E-3,8.7445974E-4,1.4920235E-3,8.8465214E-4,4.669428E-4,9.237528E-4,8.187294E-4,0E0,1.8844604E-3,0E0,0E0,2.9463649E-2,2.5346756E-2,0E0,0E0,2.2172928E-5,0E0,0E0,0E0,1.7542839E-3,7.195473E-4,0E0,6.8962574E-4,2.311942E-2,2.2071421E-2,1.6630352E-2,3.0343235E-3,0E0,0E0,0E0,7.2693825E-4,0E0,0E0,0E0,0E0,0E0,0E0,0E0,0E0,0E0,0E0,0E0,0E0,0E0,0E0],"parents":[2147483647,0,0,1,1,2,2,3,3,4,4,5,5,6,6,7,7,8,8,9,9,10,10,11,11,12,12,14,14,17,17,18,18,21,21,25,25,26,26,28,28,29,29,30,30,31,31,32,32,36,36],"right_children":[2,4,6,8,10,12,14,16,18,20,22,24,26,-1,28,-1,-1,30,32,-1,-1,34,-1,-1,-1,36,38,-1,40,42,44,46,48,-1,-1,-1,50,-1,-1,-1,-1,-1,-1,-1,-1,-1,-1,-1,-1,-1,-1],"split_conditions":[1E0,2E0,2E0,1E0,2E0,1E0,1E0,1E0,3E0,1E0,4E0,1E0,4E0,7.706032E-3,2E0,-4.441262E-3,-4.1315863E-3,1E0,1E0,-3.6790026E-3,-3.987636E-3,3E0,-3.817424E-3,6.2036105E-3,6.6790567E-3,2E0,1E0,6.778809E-3,4E0,2E0,2E0,4E0,4E0,-3.5503113E-3,-3.6781544E-3,7.3345182E-3,1E0,7.1481084E-3,7.6472973E-3,7.4465154E-3,7.0495196E-3,-3.961811E-3,-2.4096225E-3,-3.561555E-3,-5.0219754E-3,-5.0732265E-3,-3.8767136E-3,-3.1076525E-3,-3.7034263E-3,7.1038827E-3,6.7824954E-3],"split_indices":[0,2,2,1,1,1,1,2,1,1,1,2,1,0,1,0,0,2,2,0,0,1,0,0,0,1,2,0,1,1,1,1,1,0,0,0,2,0,0,0,0,0,0,0,0,0,0,0,0,0,0],"split_type":[0,0,0,0,0,0,0,0,0,0,0,0,0,0,0,0,0,0,0,0,0,0,0,0,0,0,0,0,0,0,0,0,0,0,0,0,0,0,0,0,0,0,0,0,0,0,0,0,0,0,0],"sum_hessian":[4.4542E4,2.8439E4,1.6103002E4,1.8823402E4,9.615596E3,1.0556535E4,5.546467E3,4.048392E3,1.4775011E4,3.975319E3,5.640277E3,2.203286E3,8.353249E3,1.2778851E3,4.2685815E3,2.0502415E3,1.9981505E3,7.280717E3,7.4942944E3,2.1290195E3,1.8462996E3,3.7176768E3,1.9226001E3,1.1212644E3,1.0820214E3,6.37608E3,1.9771688E3,1.02050256E3,3.248079E3,3.471944E3,3.8087727E3,4.2369824E3,3.2573123E3,2.0658447E3,1.6518319E3,1.9776451E3,4.398435E3,1.1773654E3,7.998034E2,2.132448E3,1.1156312E3,1.686852E3,1.7850919E3,1.6873475E3,2.121425E3,2.1501416E3,2.0868406E3,1.8384082E3,1.418904E3,2.1931172E3,2.2053176E3],"tree_param":{"num_deleted":"0","num_feature":"3","num_nodes":"51","size_leaf_vector":"1"}},{"base_weights":[1.7985862E-4,-9.119489E-3,1.6637394E-2,-9.3135E-3,-8.738816E-3,1.6379096E-2,1.7126074E-2,-1.002699E-2,-9.117376E-3,-8.9346655E-3,-8.599228E-3,1.508273E-2,1.6719349E-2,5.4200445E-3,1.6840374E-2,-3.1148728E-3,-2.8970519E-3,-8.877998E-3,-9.34873E-3,-2.578917E-3,-2.7959798E-3,-8.43063E-3,-2.6762139E-3,4.3578865E-3,4.693663E-3,1.6556235E-2,1.7236779E-2,4.7643706E-3,1.7136842E-2,-7.3943106E-3,-1.0228632E-2,-1.0483457E-2,-7.870453E-3,-2.488562E-3,-2.5784634E-3,5.1564765E-3,1.626828E-2,5.0250934E-3,5.3793844E-3,5.2356375E-3,4.955769E-3,-2.7778547E-3,-1.6885094E-3,-2.4965398E-3,-3.522445E-3,-3.5583281E-3,-2.717873E-3,-2.1782708E-3,-2.5963888E-3,4.756002E-3,4.996973E-3],"categories":[],"categories_nodes":[],"categories_segments":[],"categories_sizes":[],"default_left":[0,0,0,0,0,0,0,0,0,0,0,0,0,0,0,0,0,0,0,0,0,0,0,0,0,0,0,0,0,0,0,0,0,0,0,0,0,0,0,0,0,0,0,0,0,0,0,0,0,0,0],"id":12,"left_children":[1,3,5,7,9,11,13,15,17,19,21,23,25,-1,27,-1,-1,29,31,-1,-1,33,-1,-1,-1,35,37,-1,39,41,43,45,47,-1,-1,-1,49,-1,-1,-1,-1,-1,-1,-1,-1,-1,-1,-1,-1,-1,-1],"loss_changes":[6.8044477E0,2.0165443E-3,1.7457008E-3,2.539754E-3,1.8584728E-4,4.3902397E-3,1.1814833E-3,4.325211E-4,7.3444843E-4,4.375577E-4,2.3025274E-4,4.6110153E-4,4.1747093E-4,0E0,9.379387E-4,0E0,0E0,1.4500618E-2,1.2476027E-2,0E0,0E0,1.1354685E-5,0E0,0E0,0E0,8.7726116E-4,3.657341E-4,0E0,3.4230947E-4,1.1376917E-2,1.087895E-2,8.195043E-3,1.4931262E-3,0E0,0E0,0E0,4.4250488E-4,0E0,0E0,0E0,0E0,0E0,0E0,0E0,0E0,0E0,0E0,0E0,0E0,0E0,0E0],"parents":[2147483647,0,0,1,1,2,2,3,3,4,4,5,5,6,6,7,7,8,8,9,9,10,10,11,11,12,12,14,14,17,17,18,18,21,21,25,25,26,26,28,28,29,29,30,30,31,31,32,32,36,36],"right_children":[2,4,6,8,10,12,14,16,18,20,22,24,26,-1,28,-1,-1,30,32,-1,-1,34,-1,-1,-1,36,38,-1,40,42,44,46,48,-1,-1,-1,50,-1,-1,-1,-1,-1,-1,-1,-1,-1,-1,-1,-1,-1,-1],"split_conditions":[1E0,2E0,2E0,1E0,2E0,1E0,1E0,1E0,3E0,1E0,4E0,1E0,4E0,5.4200445E-3,2E0,-3.1148728E-3,-2.8970519E-3,1E0,1E0,-2.578917E-3,-2.7959798E-3,3E0,-2.6762139E-3,4.3578865E-3,4.693663E-3,2E0,1E0,4.7643706E-3,4E0,2E0,2E0,4E0,4E0,-2.488562E-3,-2.5784634E-3,5.1564765E-3,3E0,5.0250934E-3,5.3793844E-3,5.2356375E-3,4.955769E-3,-2.7778547E-3,-1.6885094E-3,-2.4965398E-3,-3.522445E-3,-3.5583281E-3,-2.717873E-3,-2.1782708E-3,-2.5963888E-3,4.756002E-3,4.996973E-3],"split_indices":[0,2,2,1,1,1,1,2,1,1,1,2,1,0,1,0,0,2,2,0,0,1,0,0,0,1,2,0,1,1,1,1,1,0,0,0,1,0,0,0,0,0,0,0,0,0,0,0,0,0,0],"split_type":[0,0,0,0,0,0,0,0,0,0,0,0,0,0,0,0,0,0,0,0,0,0,0,0,0,0,0,0,0,0,0,0,0,0,0,0,0,0,0,0,0,0,0,0,0,0,0,0,0,0,0],"sum_hessian":[4.4458637E4,2.8407432E4,1.6051204E4,1.880168E4,9.605753E3,1.0523415E4,5.527789E3,4.0430603E3,1.4758619E4,3.9710784E3,5.6346743E3,2.197243E3,8.326172E3,1.2732025E3,4.254587E3,2.0473667E3,1.9956936E3,7.2728696E3,7.48575E3,2.126906E3,1.8441724E3,3.7140867E3,1.9205876E3,1.1183563E3,1.0788867E3,6.3556333E3,1.9705385E3,1.01745886E3,3.237128E3,3.468812E3,3.8040576E3,4.2315303E3,3.2542197E3,2.0639026E3,1.6501841E3,1.9709655E3,4.384668E3,1.1736034E3,7.9693506E2,2.12506E3,1.1120679E3,1.684932E3,1.7838799E3,1.6857714E3,2.1182861E3,2.1469631E3,2.0845671E3,1.8367501E3,1.4174696E3,2.1398396E3,2.2448284E3],"tree_param":{"num_deleted":"0","num_feature":"3","num_nodes":"51","size_leaf_vector":"1"}},{"base_weights":[1.2771823E-4,-6.3911746E-3,1.1681783E-2,-6.5273903E-3,-6.1239265E-3,1.1499505E-2,1.2026701E-2,-7.0281806E-3,-6.389754E-3,-6.2612775E-3,-6.026038E-3,1.0586795E-2,1.1739147E-2,3.807289E-3,1.1825031E-2,-2.183421E-3,-2.0305E-3,-6.221901E-3,-6.551987E-3,-1.8071568E-3,-1.959514E-3,-5.9078466E-3,-1.8754252E-3,3.0584617E-3,3.2949925E-3,1.1623623E-2,1.2105692E-2,3.345032E-3,1.2033707E-2,-5.181352E-3,-7.169362E-3,-7.3480564E-3,-5.5151484E-3,-1.7437856E-3,-1.8070079E-3,1.1980744E-2,1.126696E-2,3.5284443E-3,3.7791964E-3,3.7432036E-3,3.5330746E-3,-1.9468376E-3,-1.182978E-3,-1.7494669E-3,-2.4693504E-3,-2.4945082E-3,-1.9046717E-3,-1.5262977E-3,-1.819545E-3,5.456674E-3,4.7437428E-4,1.6349588E-3,6.8757893E-3],"categories":[],"categories_nodes":[],"categories_segments":[],"categories_sizes":[],"default_left":[0,0,0,0,0,0,0,0,0,0,0,0,0,0,0,0,0,0,0,0,0,0,0,0,0,0,0,0,0,0,0,0,0,0,0,0,0,0,0,0,0,0,0,0,0,0,0,0,0,0,0,0,0],"id":13,"left_children":[1,3,5,7,9,11,13,15,17,19,21,23,25,-1,27,-1,-1,29,31,-1,-1,33,-1,-1,-1,35,37,-1,39,41,43,45,47,-1,-1,49,51,-1,-1,-1,-1,-1,-1,-1,-1,-1,-1,-1,-1,-1,-1,-1,-1],"loss_changes":[3.344338E0,9.93371E-4,8.6832047E-4,1.2500286E-3,9.134412E-5,2.1725893E-3,5.887747E-4,2.131015E-4,3.6084652E-4,2.1548569E-4,1.1307001E-4,2.2897124E-4,2.1111965E-4,0E0,4.6378374E-4,0E0,0E0,7.1285665E-3,6.134063E-3,0E0,0E0,5.841255E-6,0E0,0E0,0E0,6.7281723E-4,1.8468499E-4,0E0,2.2104383E-4,5.590394E-3,5.3523183E-3,4.032761E-3,7.340014E-4,0E0,0E0,2.0355335E-1,2.1609804E-1,0E0,0E0,0E0,0E0,0E0,0E0,0E0,0E0,0E0,0E0,0E0,0E0,0E0,0E0,0E0,0E0],"parents":[2147483647,0,0,1,1,2,2,3,3,4,4,5,5,6,6,7,7,8,8,9,9,10,10,11,11,12,12,14,14,17,17,18,18,21,21,25,25,26,26,28,28,29,29,30,30,31,31,32,32,35,35,36,36],"right_children":[2,4,6,8,10,12,14,16,18,20,22,24,26,-1,28,-1,-1,30,32,-1,-1,34,-1,-1,-1,36,38,-1,40,42,44,46,48,-1,-1,50,52,-1,-1,-1,-1,-1,-1,-1,-1,-1,-1,-1,-1,-1,-1,-1,-1],"split_conditions":[1E0,2E0,2E0,1E0,2E0,1E0,1E0,1E0,3E0,1E0,4E0,1E0,4E0,3.807289E-3,2E0,-2.183421E-3,-2.0305E-3,1E0,1E0,-1.8071568E-3,-1.959514E-3,3E0,-1.8754252E-3,3.0584617E-3,3.2949925E-3,1E0,1E0,3.345032E-3,3E0,2E0,2E0,4E0,4E0,-1.7437856E-3,-1.8070079E-3,3E0,3E0,3.5284443E-3,3.7791964E-3,3.7432036E-3,3.5330746E-3,-1.9468376E-3,-1.182978E-3,-1.7494669E-3,-2.4693504E-3,-2.4945082E-3,-1.9046717E-3,-1.5262977E-3,-1.819545E-3,5.456674E-3,4.7437428E-4,1.6349588E-3,6.8757893E-3],"split_indices":[0,2,2,1,1,1,1,2,1,1,1,2,1,0,1,0,0,2,2,0,0,1,0,0,0,2,2,0,1,1,1,1,1,0,0,1,1,0,0,0,0,0,0,0,0,0,0,0,0,0,0,0,0],"split_type":[0,0,0,0,0,0,0,0,0,0,0,0,0,0,0,0,0,0,0,0,0,0,0,0,0,0,0,0,0,0,0,0,0,0,0,0,0,0,0,0,0,0,0,0,0,0,0,0,0,0,0,0,0],"sum_hessian":[4.4399902E4,2.8385201E4,1.6014702E4,1.8786379E4,9.598821E3,1.0500077E4,5.5146255E3,4.0393054E3,1.4747073E4,3.9680923E3,5.630729E3,2.1929849E3,8.307092E3,1.2699019E3,4.2447236E3,2.0453422E3,1.9939633E3,7.2673423E3,7.4797314E3,2.125418E3,1.8426744E3,3.7115588E3,1.9191704E3,1.1163074E3,1.0766775E3,6.341228E3,1.965864E3,1.0153139E3,3.2294097E3,3.4666082E3,3.8007341E3,4.227688E3,3.2520435E3,2.062535E3,1.6490238E3,3.1522888E3,3.1889395E3,1.1709513E3,7.9491266E2,1.1665233E3,2.0628865E3,1.68358E3,1.7830283E3,1.6846617E3,2.1160723E3,2.1447217E3,2.0829663E3,1.835584E3,1.4164595E3,1.9734518E3,1.1788369E3,2.1280425E3,1.060897E3],"tree_param":{"num_deleted":"0","num_feature":"3","num_nodes":"53","size_leaf_vector":"1"}},{"base_weights":[9.067339E-5,-4.477807E-3,8.19638E-3,-4.5733587E-3,-4.2903516E-3,8.068464E-3,8.438457E-3,-4.9247695E-3,-4.4767875E-3,-4.38668E-3,-4.2217025E-3,7.4259997E-3,8.237194E-3,2.6719307E-3,8.296411E-3,-1.5300316E-3,-1.4227392E-3,-4.359104E-3,-4.5905346E-3,-1.265983E-3,-1.3729869E-3,-4.138747E-3,-1.3139697E-3,2.1451148E-3,2.3114688E-3,8.565951E-3,8.133914E-3,2.3467296E-3,8.442984E-3,-3.6298258E-3,-5.0232527E-3,-5.148598E-3,-3.8638096E-3,-1.2215653E-3,-1.265958E-3,2.0895244E-3,3.0351018E-3,8.770216E-3,7.4172304E-3,2.5878297E-3,2.4257123E-3,-1.364081E-3,-8.2860043E-4,-1.2255791E-3,-1.7303794E-3,-1.748044E-3,-1.3343847E-3,-1.0692158E-3,-1.2748486E-3,5.517214E-3,1.4001864E-3,-5.149053E-4,3.900399E-3],"categories":[],"categories_nodes":[],"categories_segments":[],"categories_sizes":[],"default_left":[0,0,0,0,0,0,0,0,0,0,0,0,0,0,0,0,0,0,0,0,0,0,0,0,0,0,0,0,0,0,0,0,0,0,0,0,0,0,0,0,0,0,0,0,0,0,0,0,0,0,0,0,0],"id":14,"left_children":[1,3,5,7,9,11,13,15,17,19,21,23,25,-1,27,-1,-1,29,31,-1,-1,33,-1,-1,-1,35,37,-1,39,41,43,45,47,-1,-1,-1,-1,49,51,-1,-1,-1,-1,-1,-1,-1,-1,-1,-1,-1,-1,-1,-1],"loss_changes":[1.6427056E0,4.885793E-4,4.2712688E-4,6.1514974E-4,4.4941902E-5,1.075387E-3,2.9215217E-4,1.0487437E-4,1.7729402E-4,1.06327236E-4,5.5737793E-5,1.1331588E-4,2.1201372E-4,0E0,2.284348E-4,0E0,0E0,3.5002977E-3,3.0122697E-3,0E0,0E0,2.9355288E-6,0E0,0E0,0E0,4.806325E-3,2.8223097E-3,0E0,1.412481E-4,2.7460493E-3,2.6303306E-3,1.982227E-3,3.6076456E-4,0E0,0E0,0E0,0E0,1.3208327E-1,1.5222506E-1,0E0,0E0,0E0,0E0,0E0,0E0,0E0,0E0,0E0,0E0,0E0,0E0,0E0,0E0],"parents":[2147483647,0,0,1,1,2,2,3,3,4,4,5,5,6,6,7,7,8,8,9,9,10,10,11,11,12,12,14,14,17,17,18,18,21,21,25,25,26,26,28,28,29,29,30,30,31,31,32,32,37,37,38,38],"right_children":[2,4,6,8,10,12,14,16,18,20,22,24,26,-1,28,-1,-1,30,32,-1,-1,34,-1,-1,-1,36,38,-1,40,42,44,46,48,-1,-1,-1,-1,50,52,-1,-1,-1,-1,-1,-1,-1,-1,-1,-1,-1,-1,-1,-1],"split_conditions":[1E0,2E0,2E0,1E0,2E0,1E0,1E0,1E0,3E0,1E0,4E0,1E0,2E0,2.6719307E-3,2E0,-1.5300316E-3,-1.4227392E-3,1E0,1E0,-1.265983E-3,-1.3729869E-3,3E0,-1.3139697E-3,2.1451148E-3,2.3114688E-3,1E0,1E0,2.3467296E-3,4E0,2E0,2E0,4E0,4E0,-1.2215653E-3,-1.265958E-3,2.0895244E-3,3.0351018E-3,3E0,3E0,2.5878297E-3,2.4257123E-3,-1.364081E-3,-8.2860043E-4,-1.2255791E-3,-1.7303794E-3,-1.748044E-3,-1.3343847E-3,-1.0692158E-3,-1.2748486E-3,5.517214E-3,1.4001864E-3,-5.149053E-4,3.900399E-3],"split_indices":[0,2,2,1,1,1,1,2,1,1,1,2,1,0,1,0,0,2,2,0,0,1,0,0,0,2,2,0,1,1,1,1,1,0,0,0,0,1,1,0,0,0,0,0,0,0,0,0,0,0,0,0,0],"split_type":[0,0,0,0,0,0,0,0,0,0,0,0,0,0,0,0,0,0,0,0,0,0,0,0,0,0,0,0,0,0,0,0,0,0,0,0,0,0,0,0,0,0,0,0,0,0,0,0,0,0,0,0,0],"sum_hessian":[4.4358574E4,2.8369568E4,1.5989005E4,1.877562E4,9.593949E3,1.0483639E4,5.5053667E3,4.0366658E3,1.4738954E4,3.9659932E3,5.6279556E3,2.18999E3,8.293648E3,1.26758E3,4.2377866E3,2.0439187E3,1.9927471E3,7.2634556E3,7.475499E3,2.1243718E3,1.8416213E3,3.7097817E3,1.918174E3,1.1148665E3,1.0751237E3,1.9630358E3,6.330613E3,1.01380505E3,3.2239817E3,3.4650598E3,3.798396E3,4.2249844E3,3.2505144E3,2.061574E3,1.6482079E3,9.687074E2,9.943283E2,3.3474094E3,2.9832031E3,2.1162185E3,1.1077631E3,1.6826294E3,1.7824304E3,1.6838813E3,2.1145144E3,2.1431438E3,2.0818406E3,1.834765E3,1.4157494E3,9.9974243E2,2.347667E3,1.1321328E3,1.8510703E3],"tree_param":{"num_deleted":"0","num_feature":"3","num_nodes":"53","size_leaf_vector":"1"}},{"base_weights":[6.423603E-5,-3.1366402E-3,5.747691E-3,-3.2036572E-3,-3.0051714E-3,5.658137E-3,5.9171775E-3,-3.449944E-3,-3.13598E-3,-3.0727983E-3,-2.956979E-3,5.2064834E-3,5.7767783E-3,1.8739948E-3,5.8171893E-3,-1.0718795E-3,-9.96623E-4,-3.0535145E-3,-3.2156892E-3,-8.867723E-4,-9.6178945E-4,-2.898911E-3,-9.203153E-4,1.5038492E-3,1.62074E-3,5.677555E-3,6.0937973E-3,1.6454336E-3,5.9199976E-3,-2.542479E-3,-3.5189663E-3,-3.606747E-3,-2.7065037E-3,-8.5558195E-4,-8.8676944E-4,6.007848E-3,5.5277855E-3,2.0573922E-3,1.4877893E-3,1.8537916E-3,1.7311379E-3,-9.5559115E-4,-5.8028963E-4,-8.584772E-4,-1.2122891E-3,-1.224621E-3,-9.347308E-4,-7.489343E-4,-8.9303567E-4,1.4651585E-3,2.1292008E-3,1.7305545E-3,1.5857912E-3],"categories":[],"categories_nodes":[],"categories_segments":[],"categories_sizes":[],"default_left":[0,0,0,0,0,0,0,0,0,0,0,0,0,0,0,0,0,0,0,0,0,0,0,0,0,0,0,0,0,0,0,0,0,0,0,0,0,0,0,0,0,0,0,0,0,0,0,0,0,0,0,0,0],"id":15,"left_children":[1,3,5,7,9,11,13,15,17,19,21,23,25,-1,27,-1,-1,29,31,-1,-1,33,-1,-1,-1,35,37,-1,39,41,43,45,47,-1,-1,49,51,-1,-1,-1,-1,-1,-1,-1,-1,-1,-1,-1,-1,-1,-1,-1,-1],"loss_changes":[8.0647963E-1,2.4023652E-4,2.0897388E-4,3.0201674E-4,2.2172928E-5,5.311072E-4,1.4483929E-4,5.159527E-5,8.703768E-5,5.225092E-5,2.7295202E-5,5.599484E-5,2.2599101E-4,0E0,1.12220645E-4,0E0,0E0,1.7183498E-3,1.4783591E-3,0E0,0E0,1.4975667E-6,0E0,0E0,0E0,2.79665E-4,1.6664043E-3,0E0,8.9250505E-5,1.3484806E-3,1.2916289E-3,9.730756E-4,1.7711334E-4,0E0,0E0,2.367556E-3,2.2356212E-4,0E0,0E0,0E0,0E0,0E0,0E0,0E0,0E0,0E0,0E0,0E0,0E0,0E0,0E0,0E0,0E0],"parents":[2147483647,0,0,1,1,2,2,3,3,4,4,5,5,6,6,7,7,8,8,9,9,10,10,11,11,12,12,14,14,17,17,18,18,21,21,25,25,26,26,28,28,29,29,30,30,31,31,32,32,35,35,36,36],"right_children":[2,4,6,8,10,12,14,16,18,20,22,24,26,-1,28,-1,-1,30,32,-1,-1,34,-1,-1,-1,36,38,-1,40,42,44,46,48,-1,-1,50,52,-1,-1,-1,-1,-1,-1,-1,-1,-1,-1,-1,-1,-1,-1,-1,-1],"split_conditions":[1E0,2E0,2E0,1E0,2E0,1E0,1E0,1E0,3E0,1E0,4E0,1E0,4E0,1.8739948E-3,2E0,-1.0718795E-3,-9.96623E-4,1E0,1E0,-8.867723E-4,-9.6178945E-4,3E0,-9.203153E-4,1.5038492E-3,1.62074E-3,2E0,1E0,1.6454336E-3,3E0,2E0,2E0,4E0,4E0,-8.5558195E-4,-8.8676944E-4,1E0,1E0,2.0573922E-3,1.4877893E-3,1.8537916E-3,1.7311379E-3,-9.5559115E-4,-5.8028963E-4,-8.584772E-4,-1.2122891E-3,-1.224621E-3,-9.347308E-4,-7.489343E-4,-8.9303567E-4,1.4651585E-3,2.1292008E-3,1.7305545E-3,1.5857912E-3],"split_indices":[0,2,2,1,1,1,1,2,1,1,1,2,1,0,1,0,0,2,2,0,0,1,0,0,0,1,2,0,1,1,1,1,1,0,0,2,2,0,0,0,0,0,0,0,0,0,0,0,0,0,0,0,0],"split_type":[0,0,0,0,0,0,0,0,0,0,0,0,0,0,0,0,0,0,0,0,0,0,0,0,0,0,0,0,0,0,0,0,0,0,0,0,0,0,0,0,0,0,0,0,0,0,0,0,0,0,0,0,0],"sum_hessian":[4.4329477E4,2.8358594E4,1.5970884E4,1.8768066E4,9.590527E3,1.0472022E4,5.498862E3,4.034812E3,1.4733254E4,3.964519E3,5.626009E3,2.1878867E3,8.284136E3,1.265949E3,4.232913E3,2.0429193E3,1.9918928E3,7.260727E3,7.472527E3,2.1236372E3,1.8408818E3,3.7085342E3,1.9174744E3,1.1138544E3,1.0740322E3,6.323772E3,1.9603638E3,1.01274506E3,3.220168E3,3.463973E3,3.796754E3,4.223086E3,3.2494412E3,2.0608992E3,1.6476351E3,1.9606852E3,4.3630864E3,1.1683448E3,7.92019E2,1.1630513E3,2.0571167E3,1.6819619E3,1.7820111E3,1.6833337E3,2.1134202E3,2.1420352E3,2.0810505E3,1.8341903E3,1.4152507E3,9.6776215E2,9.929231E2,2.1749983E3,2.1880884E3],"tree_param":{"num_deleted":"0","num_feature":"3","num_nodes":"53","size_leaf_vector":"1"}},{"base_weights":[4.5250796E-5,-2.1969161E-3,4.0285024E-3,-2.2439023E-3,-2.1047457E-3,3.9655985E-3,4.1475594E-3,-2.4164598E-3,-2.1964877E-3,-2.152051E-3,-2.0710346E-3,3.6488543E-3,4.0488117E-3,1.3136695E-3,4.0773605E-3,-7.5081445E-4,-6.980361E-4,-2.138701E-3,-2.252344E-3,-6.210395E-4,-6.7361444E-4,-6.0911203E-4,-6.445737E-4,1.0539057E-3,1.1359007E-3,3.979038E-3,4.271757E-3,1.1533515E-3,4.1493834E-3,-1.7807477E-3,-2.4647522E-3,-2.5262814E-3,-1.8956875E-3,4.211369E-3,3.8737E-3,1.4422586E-3,1.0429566E-3,1.2765084E-3,1.1831806E-3,-6.693447E-4,-4.0640074E-4,-6.012038E-4,-8.491974E-4,-8.5782475E-4,-6.5466255E-4,-5.24528E-4,-6.2555284E-4,1.0267658E-3,1.4928636E-3,1.2127876E-3,1.1112087E-3],"categories":[],"categories_nodes":[],"categories_segments":[],"categories_sizes":[],"default_left":[0,0,0,0,0,0,0,0,0,0,0,0,0,0,0,0,0,0,0,0,0,0,0,0,0,0,0,0,0,0,0,0,0,0,0,0,0,0,0,0,0,0,0,0,0,0,0,0,0,0,0],"id":16,"left_children":[1,3,5,7,9,11,13,15,17,19,21,23,25,-1,27,-1,-1,29,31,-1,-1,-1,-1,-1,-1,33,35,-1,37,39,41,43,45,47,49,-1,-1,-1,-1,-1,-1,-1,-1,-1,-1,-1,-1,-1,-1,-1,-1],"loss_changes":[3.957477E-1,1.180768E-4,1.0308623E-4,1.481995E-4,1.08368695E-5,2.6103854E-4,7.138401E-5,2.5382265E-5,4.273653E-5,2.5661662E-5,1.3375655E-5,2.7550384E-5,1.1177361E-4,0E0,5.4992735E-5,0E0,0E0,8.4291026E-4,7.251799E-4,0E0,0E0,0E0,0E0,0E0,0E0,1.3837218E-4,8.1825256E-4,0E0,5.308166E-5,6.61782E-4,6.343853E-4,4.7778338E-4,8.703489E-5,1.165498E-3,1.1000782E-4,0E0,0E0,0E0,0E0,0E0,0E0,0E0,0E0,0E0,0E0,0E0,0E0,0E0,0E0,0E0,0E0],"parents":[2147483647,0,0,1,1,2,2,3,3,4,4,5,5,6,6,7,7,8,8,9,9,10,10,11,11,12,12,14,14,17,17,18,18,25,25,26,26,28,28,29,29,30,30,31,31,32,32,33,33,34,34],"right_children":[2,4,6,8,10,12,14,16,18,20,22,24,26,-1,28,-1,-1,30,32,-1,-1,-1,-1,-1,-1,34,36,-1,38,40,42,44,46,48,50,-1,-1,-1,-1,-1,-1,-1,-1,-1,-1,-1,-1,-1,-1,-1,-1],"split_conditions":[1E0,2E0,2E0,1E0,2E0,1E0,1E0,1E0,3E0,1E0,4E0,1E0,4E0,1.3136695E-3,2E0,-7.5081445E-4,-6.980361E-4,1E0,1E0,-6.210395E-4,-6.7361444E-4,-6.0911203E-4,-6.445737E-4,1.0539057E-3,1.1359007E-3,2E0,1E0,1.1533515E-3,4E0,2E0,2E0,4E0,4E0,1E0,1E0,1.4422586E-3,1.0429566E-3,1.2765084E-3,1.1831806E-3,-6.693447E-4,-4.0640074E-4,-6.012038E-4,-8.491974E-4,-8.5782475E-4,-6.5466255E-4,-5.24528E-4,-6.2555284E-4,1.0267658E-3,1.4928636E-3,1.2127876E-3,1.1112087E-3],"split_indices":[0,2,2,1,1,1,1,2,1,1,1,2,1,0,1,0,0,2,2,0,0,0,0,0,0,1,2,0,1,1,1,1,1,2,2,0,0,0,0,0,0,0,0,0,0,0,0,0,0,0,0],"split_type":[0,0,0,0,0,0,0,0,0,0,0,0,0,0,0,0,0,0,0,0,0,0,0,0,0,0,0,0,0,0,0,0,0,0,0,0,0,0,0,0,0,0,0,0,0,0,0,0,0,0,0],"sum_hessian":[4.430913E4,2.8350895E4,1.5958232E4,1.8762766E4,9.588128E3,1.0463935E4,5.494298E3,4.0335117E3,1.4729255E4,3.963485E3,5.6246426E3,2.1864104E3,8.277524E3,1.264804E3,4.2294937E3,2.042218E3,1.9912936E3,7.258813E3,7.470442E3,2.123122E3,1.8403632E3,3.707659E3,1.9169835E3,1.1131442E3,1.0732661E3,6.3188125E3,1.9587125E3,1.0120013E3,3.2174927E3,3.463211E3,3.7956018E3,4.2217534E3,3.2486885E3,1.9590347E3,4.3597773E3,1.1672549E3,7.9145764E2,2.111843E3,1.1056495E3,1.6814937E3,1.7817173E3,1.6829495E3,2.1126523E3,2.1412573E3,2.080496E3,1.8337874E3,1.414901E3,9.670985E2,9.9193616E2,2.1732573E3,2.1865203E3],"tree_param":{"num_deleted":"0","num_feature":"3","num_nodes":"51","size_leaf_vector":"1"}},{"base_weights":[3.1910142E-5,-1.5384817E-3,2.8227607E-3,-1.5713812E-3,-1.4739457E-3,2.7786773E-3,2.9062005E-3,-1.6922988E-3,-1.5381573E-3,-1.507071E-3,-1.4503399E-3,2.5565014E-3,2.8370514E-3,9.205222E-4,2.8569826E-3,-5.257811E-4,-4.8888143E-4,-1.4976488E-3,-1.5773129E-3,-4.349267E-4,-4.7171128E-4,-4.166933E-4,-4.4562403E-4,7.383516E-4,7.958982E-4,2.7880578E-3,2.9936077E-3,8.081521E-4,2.907446E-3,-1.2469508E-3,-1.7260171E-3,-1.7691352E-3,-1.3275817E-3,2.9513875E-3,2.7140107E-3,1.010758E-3,7.3086616E-4,9.175941E-4,8.461567E-4,-4.687033E-4,-2.8458386E-4,-4.2104235E-4,-5.946585E-4,-6.0070923E-4,-4.584794E-4,-3.6734386E-4,-4.3807525E-4,7.1950594E-4,1.0463193E-3,8.497225E-4,7.785291E-4],"categories":[],"categories_nodes":[],"categories_segments":[],"categories_sizes":[],"default_left":[0,0,0,0,0,0,0,0,0,0,0,0,0,0,0,0,0,0,0,0,0,0,0,0,0,0,0,0,0,0,0,0,0,0,0,0,0,0,0,0,0,0,0,0,0,0,0,0,0,0,0],"id":17,"left_children":[1,3,5,7,9,11,13,15,17,19,21,23,25,-1,27,-1,-1,29,31,-1,-1,-1,-1,-1,-1,33,35,-1,37,39,41,43,45,47,49,-1,-1,-1,-1,-1,-1,-1,-1,-1,-1,-1,-1,-1,-1,-1,-1],"loss_changes":[1.9414109E-1,5.786866E-5,5.0589442E-5,7.276237E-5,5.3104013E-6,1.2839586E-4,3.5077333E-5,1.2394972E-5,2.0995736E-5,1.2556091E-5,1.0042451E-5,1.3582408E-5,5.5111945E-5,0E0,2.6978552E-5,0E0,0E0,4.1340664E-4,3.5549328E-4,0E0,0E0,0E0,0E0,0E0,0E0,6.8385154E-5,4.0180795E-4,0E0,3.3650547E-5,3.24429E-4,3.108587E-4,2.3411214E-4,4.265504E-5,5.726721E-4,5.4012984E-5,0E0,0E0,0E0,0E0,0E0,0E0,0E0,0E0,0E0,0E0,0E0,0E0,0E0,0E0,0E0,0E0],"parents":[2147483647,0,0,1,1,2,2,3,3,4,4,5,5,6,6,7,7,8,8,9,9,10,10,11,11,12,12,14,14,17,17,18,18,25,25,26,26,28,28,29,29,30,30,31,31,32,32,33,33,34,34],"right_children":[2,4,6,8,10,12,14,16,18,20,22,24,26,-1,28,-1,-1,30,32,-1,-1,-1,-1,-1,-1,34,36,-1,38,40,42,44,46,48,50,-1,-1,-1,-1,-1,-1,-1,-1,-1,-1,-1,-1,-1,-1,-1,-1],"split_conditions":[1E0,2E0,2E0,1E0,2E0,1E0,1E0,1E0,3E0,1E0,3E0,1E0,4E0,9.205222E-4,2E0,-5.257811E-4,-4.8888143E-4,1E0,1E0,-4.349267E-4,-4.7171128E-4,-4.166933E-4,-4.4562403E-4,7.383516E-4,7.958982E-4,2E0,1E0,8.081521E-4,3E0,2E0,2E0,4E0,4E0,1E0,1E0,1.010758E-3,7.3086616E-4,9.175941E-4,8.461567E-4,-4.687033E-4,-2.8458386E-4,-4.2104235E-4,-5.946585E-4,-6.0070923E-4,-4.584794E-4,-3.6734386E-4,-4.3807525E-4,7.1950594E-4,1.0463193E-3,8.497225E-4,7.785291E-4],"split_indices":[0,2,2,1,1,1,1,2,1,1,1,2,1,0,1,0,0,2,2,0,0,0,0,0,0,1,2,0,1,1,1,1,1,2,2,0,0,0,0,0,0,0,0,0,0,0,0,0,0,0,0],"split_type":[0,0,0,0,0,0,0,0,0,0,0,0,0,0,0,0,0,0,0,0,0,0,0,0,0,0,0,0,0,0,0,0,0,0,0,0,0,0,0,0,0,0,0,0,0,0,0,0,0,0,0],"sum_hessian":[4.4294855E4,2.8345496E4,1.594936E4,1.875905E4,9.586445E3,1.0458264E4,5.491096E3,4.0325999E3,1.472645E4,3.9627605E3,5.623685E3,2.1853748E3,8.272889E3,1.2640009E3,4.2270957E3,2.0417263E3,1.9908735E3,7.2574707E3,7.46898E3,2.1227607E3,1.8399995E3,2.0600884E3,3.5635967E3,1.112646E3,1.0727288E3,6.315335E3,1.9575543E3,1.0114795E3,3.215616E3,3.4626768E3,3.7947937E3,4.2208193E3,3.2481606E3,1.9578773E3,4.3574575E3,1.1664905E3,7.910638E2,1.1613319E3,2.054284E3,1.6811654E3,1.7815114E3,1.68268E3,2.1121135E3,2.140712E3,2.0801077E3,1.8335049E3,1.4146558E3,9.666335E2,9.912438E2,2.1720364E3,2.1854211E3],"tree_param":{"num_deleted":"0","num_feature":"3","num_nodes":"51","size_leaf_vector":"1"}},{"base_weights":[2.2469512E-5,-1.0773599E-3,1.977553E-3,-1.1004477E-3,-1.0320714E-3,1.946673E-3,2.0360025E-3,-1.1850881E-3,-1.077192E-3,-1.0552888E-3,-1.0155265E-3,1.8802377E-3,2.0456621E-3,6.449384E-4,2.0014772E-3,-3.6823557E-4,-3.4231457E-4,-1.048846E-3,-1.1045915E-3,-3.0453142E-4,-3.3032172E-4,-2.9180155E-4,-3.1200628E-4,4.117782E-3,-2.7403084E-4,-8.7606366E-4,5.7528745E-3,5.662741E-4,2.036707E-3,-8.732709E-4,-1.2087892E-3,-1.2389827E-3,-9.2963665E-4,5.1145774E-4,2.744908E-3,2.140896E-3,-1.4035872E-3,-1.2254736E-3,7.081645E-4,2.635185E-3,5.120611E-4,2.0973473E-3,5.757298E-4,-3.2822543E-4,-1.9932284E-4,-2.948613E-4,-4.1647066E-4,-4.207246E-4,-3.2106094E-4,-2.5720795E-4,-3.0679276E-4,5.57632E-4,7.3322124E-4,6.428953E-4,6.1179546E-4],"categories":[],"categories_nodes":[],"categories_segments":[],"categories_sizes":[],"default_left":[0,0,0,0,0,0,0,0,0,0,0,0,0,0,0,0,0,0,0,0,0,0,0,0,0,0,0,0,0,0,0,0,0,0,0,0,0,0,0,0,0,0,0,0,0,0,0,0,0,0,0,0,0,0,0],"id":18,"left_children":[1,3,5,7,9,11,13,15,17,19,21,23,25,-1,27,-1,-1,29,31,-1,-1,-1,-1,33,35,37,39,-1,41,43,45,47,49,-1,-1,51,-1,-1,-1,-1,-1,53,-1,-1,-1,-1,-1,-1,-1,-1,-1,-1,-1,-1,-1],"loss_changes":[9.522814E-2,2.849847E-5,2.4810433E-5,3.5647303E-5,2.6095659E-6,6.490946E-5,1.726672E-5,6.1229803E-6,1.0278076E-5,6.1737373E-6,4.8922375E-6,3.0218227E-2,4.5362137E-2,0E0,1.31148845E-5,0E0,0E0,2.0275079E-4,1.7446093E-4,0E0,0E0,0E0,0E0,3.7319954E-2,3.3991817E-2,2.4340782E-2,2.262142E-2,0E0,1.890678E-5,1.5899842E-4,1.5249522E-4,1.14935916E-4,2.0961976E-5,0E0,0E0,1.7200597E-4,0E0,0E0,0E0,0E0,0E0,1.2191013E-6,0E0,0E0,0E0,0E0,0E0,0E0,0E0,0E0,0E0,0E0,0E0,0E0,0E0],"parents":[2147483647,0,0,1,1,2,2,3,3,4,4,5,5,6,6,7,7,8,8,9,9,10,10,11,11,12,12,14,14,17,17,18,18,23,23,24,24,25,25,26,26,28,28,29,29,30,30,31,31,32,32,35,35,41,41],"right_children":[2,4,6,8,10,12,14,16,18,20,22,24,26,-1,28,-1,-1,30,32,-1,-1,-1,-1,34,36,38,40,-1,42,44,46,48,50,-1,-1,52,-1,-1,-1,-1,-1,54,-1,-1,-1,-1,-1,-1,-1,-1,-1,-1,-1,-1,-1],"split_conditions":[1E0,2E0,2E0,1E0,2E0,3E0,1E0,1E0,3E0,1E0,3E0,1E0,1E0,6.449384E-4,2E0,-3.6823557E-4,-3.4231457E-4,1E0,1E0,-3.0453142E-4,-3.3032172E-4,-2.9180155E-4,-3.1200628E-4,2E0,2E0,4E0,4E0,5.662741E-4,4E0,2E0,2E0,4E0,4E0,5.1145774E-4,2.744908E-3,1E0,-1.4035872E-3,-1.2254736E-3,7.081645E-4,2.635185E-3,5.120611E-4,3E0,5.757298E-4,-3.2822543E-4,-1.9932284E-4,-2.948613E-4,-4.1647066E-4,-4.207246E-4,-3.2106094E-4,-2.5720795E-4,-3.0679276E-4,5.57632E-4,7.3322124E-4,6.428953E-4,6.1179546E-4],"split_indices":[0,2,2,1,1,1,1,2,1,1,1,2,2,0,1,0,0,2,2,0,0,0,0,1,1,1,1,0,1,1,1,1,1,0,0,1,0,0,0,0,0,1,0,0,0,0,0,0,0,0,0,0,0,0,0],"split_type":[0,0,0,0,0,0,0,0,0,0,0,0,0,0,0,0,0,0,0,0,0,0,0,0,0,0,0,0,0,0,0,0,0,0,0,0,0,0,0,0,0,0,0,0,0,0,0,0,0,0,0,0,0,0,0],"sum_hessian":[4.428485E4,2.8341713E4,1.5943141E4,1.8756447E4,9.585266E3,1.0454289E4,5.4888525E3,4.0319612E3,1.4724485E4,3.9622522E3,5.6230137E3,6.2677554E3,4.1865337E3,1.263438E3,4.2254146E3,2.041382E3,1.9905793E3,7.25653E3,7.4679556E3,2.1225076E3,1.8397446E3,2.0598574E3,3.5631562E3,3.074007E3,3.193748E3,2.3417327E3,1.8448009E3,1.01111395E3,3.2143005E3,3.4623022E3,3.7942273E3,4.2201646E3,3.2477908E3,2.0786045E3,9.9540247E2,2.0631106E3,1.1306375E3,1.1757782E3,1.1659545E3,1.0540132E3,7.907877E2,2.109684E3,1.1046165E3,1.6809352E3,1.7813671E3,1.6824913E3,2.111736E3,2.1403296E3,2.0798352E3,1.8333069E3,1.4144839E3,1.0723523E3,9.907584E2,1.1608275E3,9.488565E2],"tree_param":{"num_deleted":"0","num_feature":"3","num_nodes":"55","size_leaf_vector":"1"}},{"base_weights":[1.5976551E-5,-7.5433106E-4,1.3855445E-3,-7.7053206E-4,-7.225521E-4,1.3640637E-3,1.4262022E-3,-8.297724E-4,-7.542555E-4,-7.3892873E-4,-7.108831E-4,1.3174389E-3,1.4335368E-3,4.5178103E-4,1.4020109E-3,-2.5781844E-4,-2.3969346E-4,-7.3446304E-4,-7.733868E-4,-2.1319305E-4,-2.313474E-4,-2.075074E-4,-2.2428692E-4,2.8857705E-3,-1.9161146E-4,-6.1311736E-4,4.032809E-3,3.9667697E-4,1.4266808E-3,-6.1150524E-4,-8.464769E-4,-8.674397E-4,-6.5094896E-4,3.581651E-4,1.9253324E-3,1.4996777E-3,-9.820573E-4,-8.576331E-4,4.961926E-4,1.8480915E-3,3.5870506E-4,4.407294E-4,4.033248E-4,-2.2985443E-4,-1.3956221E-4,-2.0645786E-4,-2.9166226E-4,-2.94609E-4,-2.2473156E-4,-1.8006736E-4,-2.1486681E-4,3.9062204E-4,5.136142E-4],"categories":[],"categories_nodes":[],"categories_segments":[],"categories_sizes":[],"default_left":[0,0,0,0,0,0,0,0,0,0,0,0,0,0,0,0,0,0,0,0,0,0,0,0,0,0,0,0,0,0,0,0,0,0,0,0,0,0,0,0,0,0,0,0,0,0,0,0,0,0,0,0,0],"id":19,"left_children":[1,3,5,7,9,11,13,15,17,19,21,23,25,-1,27,-1,-1,29,31,-1,-1,-1,-1,33,35,37,39,-1,41,43,45,47,49,-1,-1,51,-1,-1,-1,-1,-1,-1,-1,-1,-1,-1,-1,-1,-1,-1,-1,-1,-1],"loss_changes":[4.6714667E-2,1.4033169E-5,1.1976808E-5,1.7459504E-5,1.3061799E-6,3.196858E-5,8.475967E-6,2.9918738E-6,5.0077215E-6,3.0647498E-6,3.447989E-6,1.4832852E-2,2.2273056E-2,0E0,6.4261258E-6,0E0,0E0,9.943126E-5,8.543674E-5,0E0,0E0,0E0,0E0,1.8357322E-2,1.6657779E-2,1.1933315E-2,1.1124967E-2,0E0,9.240583E-6,7.8008045E-5,7.485226E-5,5.649682E-5,1.0325806E-5,0E0,0E0,8.4366184E-5,0E0,0E0,0E0,0E0,0E0,0E0,0E0,0E0,0E0,0E0,0E0,0E0,0E0,0E0,0E0,0E0,0E0],"parents":[2147483647,0,0,1,1,2,2,3,3,4,4,5,5,6,6,7,7,8,8,9,9,10,10,11,11,12,12,14,14,17,17,18,18,23,23,24,24,25,25,26,26,28,28,29,29,30,30,31,31,32,32,35,35],"right_children":[2,4,6,8,10,12,14,16,18,20,22,24,26,-1,28,-1,-1,30,32,-1,-1,-1,-1,34,36,38,40,-1,42,44,46,48,50,-1,-1,52,-1,-1,-1,-1,-1,-1,-1,-1,-1,-1,-1,-1,-1,-1,-1,-1,-1],"split_conditions":[1E0,2E0,2E0,1E0,2E0,3E0,1E0,1E0,3E0,1E0,4E0,1E0,1E0,4.5178103E-4,2E0,-2.5781844E-4,-2.3969346E-4,1E0,1E0,-2.1319305E-4,-2.313474E-4,-2.075074E-4,-2.2428692E-4,2E0,2E0,4E0,4E0,3.9667697E-4,4E0,2E0,2E0,4E0,4E0,3.581651E-4,1.9253324E-3,1E0,-9.820573E-4,-8.576331E-4,4.961926E-4,1.8480915E-3,3.5870506E-4,4.407294E-4,4.033248E-4,-2.2985443E-4,-1.3956221E-4,-2.0645786E-4,-2.9166226E-4,-2.94609E-4,-2.2473156E-4,-1.8006736E-4,-2.1486681E-4,3.9062204E-4,5.136142E-4],"split_indices":[0,2,2,1,1,1,1,2,1,1,1,2,2,0,1,0,0,2,2,0,0,0,0,1,1,1,1,0,1,1,1,1,1,0,0,1,0,0,0,0,0,0,0,0,0,0,0,0,0,0,0,0,0],"split_type":[0,0,0,0,0,0,0,0,0,0,0,0,0,0,0,0,0,0,0,0,0,0,0,0,0,0,0,0,0,0,0,0,0,0,0,0,0,0,0,0,0,0,0,0,0,0,0,0,0,0,0,0,0],"sum_hessian":[4.4277793E4,2.833906E4,1.5938733E4,1.8754621E4,9.584439E3,1.0451453E4,5.4872803E3,4.0315137E3,1.4723107E4,3.9618962E3,5.6225435E3,6.266104E3,4.185349E3,1.2630437E3,4.2242363E3,2.0411406E3,1.9903729E3,7.25587E3,7.4672373E3,2.12233E3,1.839566E3,3.7063088E3,1.9162346E3,3.072251E3,3.193853E3,2.342019E3,1.8433303E3,1.01085754E3,3.213379E3,3.4620398E3,3.7938303E3,4.2197056E3,3.2475315E3,2.0781306E3,9.9412024E2,2.0625063E3,1.1313468E3,1.1764401E3,1.1655789E3,1.052736E3,7.905943E2,2.1090557E3,1.1043232E3,1.680774E3,1.7812657E3,1.6823589E3,2.1114714E3,2.1400615E3,2.0796443E3,1.8331682E3,1.4143634E3,1.0720884E3,9.9041797E2],"tree_param":{"num_deleted":"0","num_feature":"3","num_nodes":"53","size_leaf_vector":"1"}},{"base_weights":[1.1257432E-5,-5.2824535E-4,9.705894E-4,-5.3956365E-4,-1.5181323E-4,9.5557416E-4,9.990094E-4,-5.810039E-4,-5.281778E-4,9.227862E-4,1.0044313E-3,3.1647124E-4,9.820515E-4,-1.8050842E-4,-1.6784825E-4,-5.14261E-4,-5.4163E-4,2.0216152E-3,-1.3406028E-4,-4.2919494E-4,2.8263256E-3,2.7784528E-4,9.993433E-4,-4.282194E-4,-5.926459E-4,-6.075084E-4,-4.558716E-4,2.5076163E-4,1.3496502E-3,1.0505655E-3,-6.8739906E-4,-6.002551E-4,3.4753297E-4,1.2954576E-3,2.5145934E-4,3.1830376E-4,2.891951E-4,-1.6098173E-4,-9.771207E-5,-1.4453768E-4,-2.0421116E-4,-2.0627027E-4,-1.5745034E-4,-1.2613062E-4,-1.5044148E-4,2.7358634E-4,3.5986365E-4],"categories":[],"categories_nodes":[],"categories_segments":[],"categories_sizes":[],"default_left":[0,0,0,0,0,0,0,0,0,0,0,0,0,0,0,0,0,0,0,0,0,0,0,0,0,0,0,0,0,0,0,0,0,0,0,0,0,0,0,0,0,0,0,0,0,0,0],"id":20,"left_children":[1,3,5,7,-1,9,11,13,15,17,19,-1,21,-1,-1,23,25,27,29,31,33,-1,35,37,39,41,43,-1,-1,45,-1,-1,-1,-1,-1,-1,-1,-1,-1,-1,-1,-1,-1,-1,-1,-1,-1],"loss_changes":[2.2914983E-2,6.848015E-6,5.845912E-6,8.541159E-6,0E0,1.5812926E-5,4.16534E-6,1.4579855E-6,2.4777837E-6,7.2768712E-3,1.093343E-2,0E0,3.1576492E-6,0E0,0E0,4.868605E-5,4.1912775E-5,9.019817E-3,8.167223E-3,5.849163E-3,5.463642E-3,0E0,5.9851445E-6,3.8300816E-5,3.6712736E-5,2.7572969E-5,5.038164E-6,0E0,0E0,4.1509513E-5,0E0,0E0,0E0,0E0,0E0,0E0,0E0,0E0,0E0,0E0,0E0,0E0,0E0,0E0,0E0,0E0,0E0],"parents":[2147483647,0,0,1,1,2,2,3,3,5,5,6,6,7,7,8,8,9,9,10,10,12,12,15,15,16,16,17,17,18,18,19,19,20,20,22,22,23,23,24,24,25,25,26,26,29,29],"right_children":[2,4,6,8,-1,10,12,14,16,18,20,-1,22,-1,-1,24,26,28,30,32,34,-1,36,38,40,42,44,-1,-1,46,-1,-1,-1,-1,-1,-1,-1,-1,-1,-1,-1,-1,-1,-1,-1,-1,-1],"split_conditions":[1E0,2E0,2E0,1E0,-1.5181323E-4,3E0,1E0,1E0,3E0,1E0,1E0,3.1647124E-4,2E0,-1.8050842E-4,-1.6784825E-4,1E0,1E0,2E0,2E0,4E0,4E0,2.7784528E-4,3E0,2E0,2E0,4E0,4E0,2.5076163E-4,1.3496502E-3,1E0,-6.8739906E-4,-6.002551E-4,3.4753297E-4,1.2954576E-3,2.5145934E-4,3.1830376E-4,2.891951E-4,-1.6098173E-4,-9.771207E-5,-1.4453768E-4,-2.0421116E-4,-2.0627027E-4,-1.5745034E-4,-1.2613062E-4,-1.5044148E-4,2.7358634E-4,3.5986365E-4],"split_indices":[0,2,2,1,0,1,1,2,1,2,2,0,1,0,0,2,2,1,1,1,1,0,1,1,1,1,1,0,0,1,0,0,0,0,0,0,0,0,0,0,0,0,0,0,0,0,0],"split_type":[0,0,0,0,0,0,0,0,0,0,0,0,0,0,0,0,0,0,0,0,0,0,0,0,0,0,0,0,0,0,0,0,0,0,0,0,0,0,0,0,0,0,0,0,0,0,0],"sum_hessian":[4.4272844E4,2.8337203E4,1.593564E4,1.8753342E4,9.583861E3,1.0449461E4,5.4861787E3,4.0312002E3,1.4722143E4,6.2649443E3,4.184517E3,1.2627673E3,4.223411E3,2.0409716E3,1.9902285E3,7.255408E3,7.466734E3,3.0710186E3,3.1939255E3,2.3422185E3,1.8422983E3,1.0106779E3,3.2127332E3,3.461856E3,3.7935525E3,4.2193843E3,3.24735E3,2.0777988E3,9.932198E2,2.062083E3,1.1318427E3,1.1769031E3,1.1653154E3,1.0518394E3,7.90459E2,1.1602317E3,2.0525015E3,1.680661E3,1.7811951E3,1.6822664E3,2.1112861E3,2.1398735E3,2.0795107E3,1.833071E3,1.4142789E3,1.0719033E3,9.9017957E2],"tree_param":{"num_deleted":"0","num_feature":"3","num_nodes":"47","size_leaf_vector":"1"}},{"base_weights":[7.9596475E-6,-3.6985867E-4,6.798485E-4,-3.7781175E-4,-1.0627759E-4,6.694094E-4,6.9960626E-4,-1.2207116E-4,-3.6981876E-4,6.4640783E-4,7.036843E-4,2.133638E-4,1.958823E-4,-3.6006173E-4,-3.7925018E-4,1.4162409E-3,-9.3792674E-5,-3.0046792E-4,1.9803678E-3,-2.997614E-4,-4.1499687E-4,-4.25378E-4,-3.192032E-4,1.7556593E-4,9.4598834E-4,7.3582307E-4,-4.811669E-4,-4.2021094E-4,2.4343122E-4,9.0791815E-4,1.7611553E-4,-1.12681395E-4,-6.8408895E-5,-1.0123914E-4,-1.4297623E-4,-1.4445744E-4,-1.10219604E-4,-8.8334426E-5,-1.0531744E-4,1.9157516E-4,2.5210268E-4],"categories":[],"categories_nodes":[],"categories_segments":[],"categories_sizes":[],"default_left":[0,0,0,0,0,0,0,0,0,0,0,0,0,0,0,0,0,0,0,0,0,0,0,0,0,0,0,0,0,0,0,0,0,0,0,0,0,0,0,0,0],"id":21,"left_children":[1,3,5,7,-1,9,11,-1,13,15,17,-1,-1,19,21,23,25,27,29,31,33,35,37,-1,-1,39,-1,-1,-1,-1,-1,-1,-1,-1,-1,-1,-1,-1,-1,-1,-1],"loss_changes":[1.1238369E-2,3.382098E-6,2.818182E-6,4.2102765E-6,0E0,7.782597E-6,2.5071204E-6,0E0,1.2184028E-6,3.5701978E-3,5.3656143E-3,0E0,0E0,2.3912231E-5,2.0547537E-5,4.4314535E-3,4.0038466E-3,2.8679008E-3,2.683674E-3,1.8752879E-5,1.7958344E-5,1.3561279E-5,2.4580804E-6,0E0,0E0,2.0428211E-5,0E0,0E0,0E0,0E0,0E0,0E0,0E0,0E0,0E0,0E0,0E0,0E0,0E0,0E0,0E0],"parents":[2147483647,0,0,1,1,2,2,3,3,5,5,6,6,8,8,9,9,10,10,13,13,14,14,15,15,16,16,17,17,18,18,19,19,20,20,21,21,22,22,25,25],"right_children":[2,4,6,8,-1,10,12,-1,14,16,18,-1,-1,20,22,24,26,28,30,32,34,36,38,-1,-1,40,-1,-1,-1,-1,-1,-1,-1,-1,-1,-1,-1,-1,-1,-1,-1],"split_conditions":[1E0,2E0,2E0,1E0,-1.0627759E-4,3E0,4E0,-1.2207116E-4,3E0,1E0,1E0,2.133638E-4,1.958823E-4,1E0,1E0,2E0,2E0,4E0,4E0,2E0,2E0,4E0,4E0,1.7556593E-4,9.4598834E-4,1E0,-4.811669E-4,-4.2021094E-4,2.4343122E-4,9.0791815E-4,1.7611553E-4,-1.12681395E-4,-6.8408895E-5,-1.0123914E-4,-1.4297623E-4,-1.4445744E-4,-1.10219604E-4,-8.8334426E-5,-1.0531744E-4,1.9157516E-4,2.5210268E-4],"split_indices":[0,2,2,1,0,1,1,0,1,2,2,0,0,2,2,1,1,1,1,1,1,1,1,0,0,1,0,0,0,0,0,0,0,0,0,0,0,0,0,0,0],"split_type":[0,0,0,0,0,0,0,0,0,0,0,0,0,0,0,0,0,0,0,0,0,0,0,0,0,0,0,0,0,0,0,0,0,0,0,0,0,0,0,0,0],"sum_hessian":[4.4269375E4,2.8335904E4,1.5933471E4,1.8752447E4,9.583456E3,1.0448063E4,5.4854067E3,4.0309805E3,1.4721467E4,6.264131E3,4.1839326E3,4.381436E3,1.1039706E3,7.255085E3,7.4663823E3,3.0701548E3,3.193976E3,2.3423582E3,1.8415746E3,3.4617273E3,3.7933574E3,4.219159E3,3.247223E3,2.0775664E3,9.925885E2,2.0617864E3,1.1321897E3,1.177227E3,1.1651311E3,1.0512107E3,7.9036395E2,1.6805818E3,1.7811454E3,1.6822012E3,2.1111562E3,2.139742E3,2.079417E3,1.8330032E3,1.4142198E3,1.0717738E3,9.900126E2],"tree_param":{"num_deleted":"0","num_feature":"3","num_nodes":"41","size_leaf_vector":"1"}},{"base_weights":[5.627756E-6,-2.5893166E-4,4.7613372E-4,-2.6450635E-4,-7.439908E-5,4.6885145E-4,4.8991636E-4,-8.545323E-5,-7.767558E-5,4.5276782E-4,4.928179E-4,1.576634E-4,4.791421E-4,9.921303E-4,-6.572551E-5,-2.1053187E-4,1.3873434E-3,1.3063208E-4,4.927505E-4,1.229815E-4,6.6285377E-4,5.152646E-4,-3.3687952E-4,-2.9420276E-4,1.7040517E-4,6.3613814E-4,1.233456E-4,1.5906317E-4,1.4139831E-4,1.342266E-4,1.7645604E-4],"categories":[],"categories_nodes":[],"categories_segments":[],"categories_sizes":[],"default_left":[0,0,0,0,0,0,0,0,0,0,0,0,0,0,0,0,0,0,0,0,0,0,0,0,0,0,0,0,0,0,0],"id":22,"left_children":[1,3,5,7,-1,9,11,-1,-1,13,15,-1,17,19,21,23,25,-1,27,-1,-1,29,-1,-1,-1,-1,-1,-1,-1,-1,-1],"loss_changes":[5.510454E-3,1.6618287E-6,1.3695098E-6,2.0572916E-6,0E0,3.80422E-6,1.8541468E-6,0E0,0E0,1.7519861E-3,2.6330445E-3,0E0,2.297049E-6,2.1753465E-3,1.9630382E-3,1.4056809E-3,1.3174268E-3,0E0,2.3285393E-6,0E0,0E0,9.940937E-6,0E0,0E0,0E0,0E0,0E0,0E0,0E0,0E0,0E0],"parents":[2147483647,0,0,1,1,2,2,3,3,5,5,6,6,9,9,10,10,12,12,13,13,14,14,15,15,16,16,18,18,21,21],"right_children":[2,4,6,8,-1,10,12,-1,-1,14,16,-1,18,20,22,24,26,-1,28,-1,-1,30,-1,-1,-1,-1,-1,-1,-1,-1,-1],"split_conditions":[1E0,2E0,2E0,1E0,-7.439908E-5,3E0,1E0,-8.545323E-5,-7.767558E-5,1E0,1E0,1.576634E-4,2E0,2E0,2E0,4E0,4E0,1.3063208E-4,3E0,1.229815E-4,6.6285377E-4,1E0,-3.3687952E-4,-2.9420276E-4,1.7040517E-4,6.3613814E-4,1.233456E-4,1.5906317E-4,1.4139831E-4,1.342266E-4,1.7645604E-4],"split_indices":[0,2,2,1,0,1,1,0,0,2,2,0,1,1,1,1,1,0,1,0,0,1,0,0,0,0,0,0,0,0,0],"split_type":[0,0,0,0,0,0,0,0,0,0,0,0,0,0,0,0,0,0,0,0,0,0,0,0,0,0,0,0,0,0,0],"sum_hessian":[4.426694E4,2.8334994E4,1.593195E4,1.875182E4,9.583173E3,1.0447083E4,5.4848667E3,4.030827E3,1.4720994E4,6.2635605E3,4.183523E3,1.2624431E3,4.2224233E3,3.0695496E3,3.194011E3,2.3424556E3,1.8410673E3,1.01045544E3,3.211968E3,2.0774038E3,9.9214575E2,2.0615786E3,1.1324325E3,1.1774539E3,1.1650017E3,1.0507699E3,7.9029736E2,1.1599393E3,2.0520286E3,1.0716831E3,9.898954E2],"tree_param":{"num_deleted":"0","num_feature":"3","num_nodes":"31","size_leaf_vector":"1"}},{"base_weights":[3.9347597E-6,-5.4385742E-5,1.00006546E-4],"categories":[],"categories_nodes":[],"categories_segments":[],"categories_sizes":[],"default_left":[0,0,0],"id":23,"left_children":[1,-1,-1],"loss_changes":[2.7009835E-3,0E0,0E0],"parents":[2147483647,0,0],"right_children":[2,-1,-1],"split_conditions":[1E0,-5.4385742E-5,1.00006546E-4],"split_indices":[0,0,0],"split_type":[0,0,0],"sum_hessian":[4.426524E4,2.8334357E4,1.5930883E4],"tree_param":{"num_deleted":"0","num_feature":"3","num_nodes":"3","size_leaf_vector":"1"}},{"base_weights":[2.7506903E-6,-3.8079834E-5,7.00211E-5],"categories":[],"categories_nodes":[],"categories_segments":[],"categories_sizes":[],"default_left":[0,0,0],"id":24,"left_children":[1,-1,-1],"loss_changes":[1.3240807E-3,0E0,0E0],"parents":[2147483647,0,0],"right_children":[2,-1,-1],"split_conditions":[1E0,-3.8079834E-5,7.00211E-5],"split_indices":[0,0,0],"split_type":[0,0,0],"sum_hessian":[4.4264062E4,2.8333912E4,1.5930148E4],"tree_param":{"num_deleted":"0","num_feature":"3","num_nodes":"3","size_leaf_vector":"1"}},{"base_weights":[1.9628808E-6,-2.6657288E-5,4.9049475E-5],"categories":[],"categories_nodes":[],"categories_segments":[],"categories_sizes":[],"default_left":[0,0,0],"id":25,"left_children":[1,-1,-1],"loss_changes":[6.494029E-4,0E0,0E0],"parents":[2147483647,0,0],"right_children":[2,-1,-1],"split_conditions":[1E0,-2.6657288E-5,4.9049475E-5],"split_indices":[0,0,0],"split_type":[0,0,0],"sum_hessian":[4.4263234E4,2.8333602E4,1.5929635E4],"tree_param":{"num_deleted":"0","num_feature":"3","num_nodes":"3","size_leaf_vector":"1"}},{"base_weights":[1.3714864E-6,-1.8654122E-5,3.432239E-5],"categories":[],"categories_nodes":[],"categories_segments":[],"categories_sizes":[],"default_left":[0,0,0],"id":26,"left_children":[1,-1,-1],"loss_changes":[3.1798315E-4,0E0,0E0],"parents":[2147483647,0,0],"right_children":[2,-1,-1],"split_conditions":[1E0,-1.8654122E-5,3.432239E-5],"split_indices":[0,0,0],"split_type":[0,0,0],"sum_hessian":[4.4262656E4,2.8333383E4,1.5929274E4],"tree_param":{"num_deleted":"0","num_feature":"3","num_nodes":"3","size_leaf_vector":"1"}},{"base_weights":[9.4752505E-7,-1.3064345E-5,2.402698E-5],"categories":[],"categories_nodes":[],"categories_segments":[],"categories_sizes":[],"default_left":[0,0,0],"id":27,"left_children":[1,-1,-1],"loss_changes":[1.5587512E-4,0E0,0E0],"parents":[2147483647,0,0],"right_children":[2,-1,-1],"split_conditions":[1E0,-1.3064345E-5,2.402698E-5],"split_indices":[0,0,0],"split_type":[0,0,0],"sum_hessian":[4.4262254E4,2.833323E4,1.5929022E4],"tree_param":{"num_deleted":"0","num_feature":"3","num_nodes":"3","size_leaf_vector":"1"}},{"base_weights":[6.446269E-7,-9.148494E-6,1.680961E-5],"categories":[],"categories_nodes":[],"categories_segments":[],"categories_sizes":[],"default_left":[0,0,0],"id":28,"left_children":[1,-1,-1],"loss_changes":[7.634392E-5,0E0,0E0],"parents":[2147483647,0,0],"right_children":[2,-1,-1],"split_conditions":[1E0,-9.148494E-6,1.680961E-5],"split_indices":[0,0,0],"split_type":[0,0,0],"sum_hessian":[4.426197E4,2.8333123E4,1.5928846E4],"tree_param":{"num_deleted":"0","num_feature":"3","num_nodes":"3","size_leaf_vector":"1"}},{"base_weights":[4.331388E-7,-6.406005E-6,1.1755362E-5],"categories":[],"categories_nodes":[],"categories_segments":[],"categories_sizes":[],"default_left":[0,0,0],"id":29,"left_children":[1,-1,-1],"loss_changes":[3.7369988E-5,0E0,0E0],"parents":[2147483647,0,0],"right_children":[2,-1,-1],"split_conditions":[1E0,-6.406005E-6,1.1755362E-5],"split_indices":[0,0,0],"split_type":[0,0,0],"sum_hessian":[4.426177E4,2.8333049E4,1.5928722E4],"tree_param":{"num_deleted":"0","num_feature":"3","num_nodes":"3","size_leaf_vector":"1"}},{"base_weights":[2.9660907E-7,-4.489593E-6,8.232876E-6],"categories":[],"categories_nodes":[],"categories_segments":[],"categories_sizes":[],"default_left":[0,0,0],"id":30,"left_children":[1,-1,-1],"loss_changes":[1.8338631E-5,0E0,0E0],"parents":[2147483647,0,0],"right_children":[2,-1,-1],"split_conditions":[1E0,-4.489593E-6,8.232876E-6],"split_indices":[0,0,0],"split_type":[0,0,0],"sum_hessian":[4.4261633E4,2.8332996E4,1.5928636E4],"tree_param":{"num_deleted":"0","num_feature":"3","num_nodes":"3","size_leaf_vector":"1"}},{"base_weights":[1.7122426E-7,-3.1663046E-6,5.774642E-6],"categories":[],"categories_nodes":[],"categories_segments":[],"categories_sizes":[],"default_left":[0,0,0],"id":31,"left_children":[1,-1,-1],"loss_changes":[9.057114E-6,0E0,0E0],"parents":[2147483647,0,0],"right_children":[2,-1,-1],"split_conditions":[1E0,-3.1663046E-6,5.774642E-6],"split_indices":[0,0,0],"split_type":[0,0,0],"sum_hessian":[4.4261535E4,2.833296E4,1.5928575E4],"tree_param":{"num_deleted":"0","num_feature":"3","num_nodes":"3","size_leaf_vector":"1"}},{"base_weights":[1.2165754E-7,-2.2143988E-6,4.040174E-6],"categories":[],"categories_nodes":[],"categories_segments":[],"categories_sizes":[],"default_left":[0,0,0],"id":32,"left_children":[1,-1,-1],"loss_changes":[4.4321782E-6,0E0,0E0],"parents":[2147483647,0,0],"right_children":[2,-1,-1],"split_conditions":[1E0,-2.2143988E-6,4.040174E-6],"split_indices":[0,0,0],"split_type":[0,0,0],"sum_hessian":[4.426147E4,2.8332936E4,1.5928533E4],"tree_param":{"num_deleted":"0","num_feature":"3","num_nodes":"3","size_leaf_vector":"1"}},{"base_weights":[1.06811854E-7,-1.5428983E-6,2.8334016E-6],"categories":[],"categories_nodes":[],"categories_segments":[],"categories_sizes":[],"default_left":[0,0,0],"id":33,"left_children":[1,-1,-1],"loss_changes":[2.1698786E-6,0E0,0E0],"parents":[2147483647,0,0],"right_children":[2,-1,-1],"split_conditions":[1E0,-1.5428983E-6,2.8334016E-6],"split_indices":[0,0,0],"split_type":[0,0,0],"sum_hessian":[4.426142E4,2.8332916E4,1.5928503E4],"tree_param":{"num_deleted":"0","num_feature":"3","num_nodes":"3","size_leaf_vector":"1"}},{"base_weights":[4.917051E-8,-4.2830216E-6,8.443838E-6,-5.9815316E-6,-1.4907899E-8,1.3710278E-5,-3.7695138E-6,1.3640924E-7,8.478883E-6,6.9083603E-6,-8.114629E-6],"categories":[],"categories_nodes":[],"categories_segments":[],"categories_sizes":[],"default_left":[0,0,0,0,0,0,0,0,0,0,0],"id":34,"left_children":[1,3,5,-1,-1,7,-1,9,-1,-1,-1],"loss_changes":[1.6097403E-6,1.934966E-6,1.6672317E-6,0E0,0E0,2.379844E-6,0E0,3.880384E-6,0E0,0E0,0E0],"parents":[2147483647,0,0,1,1,2,2,5,5,7,7],"right_children":[2,4,6,-1,-1,8,-1,10,-1,-1,-1],"split_conditions":[2E0,1E0,4E0,-5.9815316E-6,-1.4907899E-8,2E0,-3.7695138E-6,1E0,8.478883E-6,6.9083603E-6,-8.114629E-6],"split_indices":[2,1,1,0,0,1,0,1,0,0,0],"split_type":[0,0,0,0,0,0,0,0,0,0,0],"sum_hessian":[4.4261387E4,2.919524E4,1.50661455E4,6.213431E3,2.2981809E4,1.2046672E4,3.0194739E3,6.2334683E3,5.8132036E3,3.384055E3,2.8494133E3],"tree_param":{"num_deleted":"0","num_feature":"3","num_nodes":"11","size_leaf_vector":"1"}},{"base_weights":[5.355982E-8,-1.0719032E-6,1.9512504E-6],"categories":[],"categories_nodes":[],"categories_segments":[],"categories_sizes":[],"default_left":[0,0,0],"id":35,"left_children":[1,-1,-1],"loss_changes":[1.0354789E-6,0E0,0E0],"parents":[2147483647,0,0],"right_children":[2,-1,-1],"split_conditions":[1E0,-1.0719032E-6,1.9512504E-6],"split_indices":[0,0,0],"split_type":[0,0,0],"sum_hessian":[4.4261383E4,2.8332902E4,1.592848E4],"tree_param":{"num_deleted":"0","num_feature":"3","num_nodes":"3","size_leaf_vector":"1"}},{"base_weights":[-6.745227E-9],"categories":[],"categories_nodes":[],"categories_segments":[],"categories_sizes":[],"default_left":[0],"id":36,"left_children":[-1],"loss_changes":[0E0],"parents":[2147483647],"right_children":[-1],"split_conditions":[-2.0235682E-9],"split_indices":[0],"split_type":[0],"sum_hessian":[4.426136E4],"tree_param":{"num_deleted":"0","num_feature":"3","num_nodes":"1","size_leaf_vector":"1"}},{"base_weights":[-6.745227E-9],"categories":[],"categories_nodes":[],"categories_segments":[],"categories_sizes":[],"default_left":[0],"id":37,"left_children":[-1],"loss_changes":[0E0],"parents":[2147483647],"right_children":[-1],"split_conditions":[-2.0235682E-9],"split_indices":[0],"split_type":[0],"sum_hessian":[4.426136E4],"tree_param":{"num_deleted":"0","num_feature":"3","num_nodes":"1","size_leaf_vector":"1"}},{"base_weights":[-6.745227E-9],"categories":[],"categories_nodes":[],"categories_segments":[],"categories_sizes":[],"default_left":[0],"id":38,"left_children":[-1],"loss_changes":[0E0],"parents":[2147483647],"right_children":[-1],"split_conditions":[-2.0235682E-9],"split_indices":[0],"split_type":[0],"sum_hessian":[4.426136E4],"tree_param":{"num_deleted":"0","num_feature":"3","num_nodes":"1","size_leaf_vector":"1"}},{"base_weights":[-6.745227E-9],"categories":[],"categories_nodes":[],"categories_segments":[],"categories_sizes":[],"default_left":[0],"id":39,"left_children":[-1],"loss_changes":[0E0],"parents":[2147483647],"right_children":[-1],"split_conditions":[-2.0235682E-9],"split_indices":[0],"split_type":[0],"sum_hessian":[4.426136E4],"tree_param":{"num_deleted":"0","num_feature":"3","num_nodes":"1","size_leaf_vector":"1"}},{"base_weights":[-6.745227E-9],"categories":[],"categories_nodes":[],"categories_segments":[],"categories_sizes":[],"default_left":[0],"id":40,"left_children":[-1],"loss_changes":[0E0],"parents":[2147483647],"right_children":[-1],"split_conditions":[-2.0235682E-9],"split_indices":[0],"split_type":[0],"sum_hessian":[4.426136E4],"tree_param":{"num_deleted":"0","num_feature":"3","num_nodes":"1","size_leaf_vector":"1"}},{"base_weights":[-6.745227E-9],"categories":[],"categories_nodes":[],"categories_segments":[],"categories_sizes":[],"default_left":[0],"id":41,"left_children":[-1],"loss_changes":[0E0],"parents":[2147483647],"right_children":[-1],"split_conditions":[-2.0235682E-9],"split_indices":[0],"split_type":[0],"sum_hessian":[4.426136E4],"tree_param":{"num_deleted":"0","num_feature":"3","num_nodes":"1","size_leaf_vector":"1"}},{"base_weights":[-6.745227E-9],"categories":[],"categories_nodes":[],"categories_segments":[],"categories_sizes":[],"default_left":[0],"id":42,"left_children":[-1],"loss_changes":[0E0],"parents":[2147483647],"right_children":[-1],"split_conditions":[-2.0235682E-9],"split_indices":[0],"split_type":[0],"sum_hessian":[4.426136E4],"tree_param":{"num_deleted":"0","num_feature":"3","num_nodes":"1","size_leaf_vector":"1"}},{"base_weights":[-6.745227E-9],"categories":[],"categories_nodes":[],"categories_segments":[],"categories_sizes":[],"default_left":[0],"id":43,"left_children":[-1],"loss_changes":[0E0],"parents":[2147483647],"right_children":[-1],"split_conditions":[-2.0235682E-9],"split_indices":[0],"split_type":[0],"sum_hessian":[4.426136E4],"tree_param":{"num_deleted":"0","num_feature":"3","num_nodes":"1","size_leaf_vector":"1"}},{"base_weights":[-6.745227E-9],"categories":[],"categories_nodes":[],"categories_segments":[],"categories_sizes":[],"default_left":[0],"id":44,"left_children":[-1],"loss_changes":[0E0],"parents":[2147483647],"right_children":[-1],"split_conditions":[-2.0235682E-9],"split_indices":[0],"split_type":[0],"sum_hessian":[4.426136E4],"tree_param":{"num_deleted":"0","num_feature":"3","num_nodes":"1","size_leaf_vector":"1"}},{"base_weights":[-6.745227E-9],"categories":[],"categories_nodes":[],"categories_segments":[],"categories_sizes":[],"default_left":[0],"id":45,"left_children":[-1],"loss_changes":[0E0],"parents":[2147483647],"right_children":[-1],"split_conditions":[-2.0235682E-9],"split_indices":[0],"split_type":[0],"sum_hessian":[4.426136E4],"tree_param":{"num_deleted":"0","num_feature":"3","num_nodes":"1","size_leaf_vector":"1"}},{"base_weights":[-6.745227E-9],"categories":[],"categories_nodes":[],"categories_segments":[],"categories_sizes":[],"default_left":[0],"id":46,"left_children":[-1],"loss_changes":[0E0],"parents":[2147483647],"right_children":[-1],"split_conditions":[-2.0235682E-9],"split_indices":[0],"split_type":[0],"sum_hessian":[4.426136E4],"tree_param":{"num_deleted":"0","num_feature":"3","num_nodes":"1","size_leaf_vector":"1"}},{"base_weights":[-6.745227E-9],"categories":[],"categories_nodes":[],"categories_segments":[],"categories_sizes":[],"default_left":[0],"id":47,"left_children":[-1],"loss_changes":[0E0],"parents":[2147483647],"right_children":[-1],"split_conditions":[-2.0235682E-9],"split_indices":[0],"split_type":[0],"sum_hessian":[4.426136E4],"tree_param":{"num_deleted":"0","num_feature":"3","num_nodes":"1","size_leaf_vector":"1"}},{"base_weights":[-6.745227E-9],"categories":[],"categories_nodes":[],"categories_segments":[],"categories_sizes":[],"default_left":[0],"id":48,"left_children":[-1],"loss_changes":[0E0],"parents":[2147483647],"right_children":[-1],"split_conditions":[-2.0235682E-9],"split_indices":[0],"split_type":[0],"sum_hessian":[4.426136E4],"tree_param":{"num_deleted":"0","num_feature":"3","num_nodes":"1","size_leaf_vector":"1"}},{"base_weights":[-6.745227E-9],"categories":[],"categories_nodes":[],"categories_segments":[],"categories_sizes":[],"default_left":[0],"id":49,"left_children":[-1],"loss_changes":[0E0],"parents":[2147483647],"right_children":[-1],"split_conditions":[-2.0235682E-9],"split_indices":[0],"split_type":[0],"sum_hessian":[4.426136E4],"tree_param":{"num_deleted":"0","num_feature":"3","num_nodes":"1","size_leaf_vector":"1"}}]},"name":"gbtree"},"learner_model_param":{"base_score":"5.0403607E-1","boost_from_average":"1","num_class":"0","num_feature":"3","num_target":"1"},"objective":{"name":"binary:logistic","reg_loss_param":{"scale_pos_weight":"1"}}},"version":[3,0,0]}